{"schemaVersion":2,"hidden":64,"checkpoints":[{"id":"init","gen":-1,"label":"Untrained","stats":{"gamesWatched":0,"loss":null,"vsRandom":{"asX":{"w":170,"d":24,"l":56},"asO":{"w":102,"d":22,"l":126},"gamesPerSide":250},"losingBlunders":1522,"missedWins":330,"positionsChecked":4520,"skills":{"takesWin":0.5403,"blocksThreat":0.3047,"winPositions":1638,"blockPositions":860}},"weights":{"W1":[-0.0017647,0.12644,-0.19399,-0.17346,-0.090782,0.063205,-0.00467,0.18689,-0.020917,0.06237,-0.071232,-0.046331,-0.22518,-0.1561,-0.097162,0.0087313,0.093181,0.14143,-0.15979,-0.10264,0.085611,0.19572,-0.048508,0.17638,-0.037991,0.024941,0.21342,-0.21865,-0.14838,-0.059672,-0.091877,0.20365,-0.15278,-0.1085,-0.16467,-0.22075,-0.13759,0.20261,0.10517,0.11424,0.012396,-0.12084,0.039877,-0.22007,-0.17031,-0.12151,0.14871,0.1382,-0.10453,-0.0085047,0.15075,0.23432,0.093546,0.031842,0.15804,-0.13878,0.043922,-0.18274,-0.16336,-0.12176,0.10665,0.09479,-0.13962,0.071207,0.12939,-0.02975,0.0089995,0.054613,0.14622,0.22632,-0.18164,-0.086378,0.092633,0.19529,0.20511,0.20797,0.046908,-0.20496,0.021683,-0.14746,-0.21966,0.20942,0.17922,-0.23512,0.044117,-0.039706,-0.038787,-0.10789,0.090641,-0.13961,0.086406,0.1192,0.16873,0.088132,-0.23328,-0.1529,0.11769,0.049333,-0.18387,-0.13572,0.22174,0.15882,-0.10277,-0.059323,-0.22453,-0.0042365,-0.1775,-0.18181,-0.012987,0.03539,-0.096527,0.13986,-0.14343,0.21387,0.16153,-0.19876,-0.058663,0.010636,0.034389,0.055903,0.092496,0.014119,-0.11501,0.11153,-0.2261,-0.1397,-0.059003,-0.11481,-0.082457,-0.19319,-0.050137,0.050383,-0.15355,-0.012096,0.16873,-0.02423,0.0065507,-0.020334,0.047702,0.14987,0.22327,0.14968,0.22378,-0.017046,-0.21174,-0.11174,0.16049,-0.0015279,-0.11715,-0.18062,-0.22058,-0.19893,-0.047809,0.12926,0.12743,-0.22732,0.14703,-0.18444,-0.04983,-0.095571,-0.0454,-0.046278,-0.21151,-0.20351,-0.036883,0.0030481,-0.10707,0.088789,-0.21215,-0.015907,0.20728,-0.096141,0.21284,0.08536,-0.21271,0.14913,-0.027199,-0.10522,0.18848,-0.19047,0.025292,-0.049349,0.16832,0.065795,0.11326,0.08324,-0.05668,-0.049569,-0.19424,0.12771,0.18714,0.16127,-0.16626,0.010512,-0.16615,-0.12975,-0.13735,0.08055,-0.14046,-0.0051424,0.0099156,0.15194,-0.17817,-0.16181,-0.13686,0.16498,-0.084727,0.19881,0.085232,0.029846,-0.0017546,-0.046594,0.029573,-0.053821,-0.0016561,0.030074,-0.18437,-0.12354,0.19033,-0.19128,-0.016925,0.23317,0.085144,0.0066734,-0.20426,0.11676,-0.16789,-0.066907,-0.079082,-0.034905,0.0025782,0.19441,0.029425,0.21112,0.14418,-0.14901,0.10571,-0.16662,-0.099897,0.069325,0.077827,0.17683,-0.075876,0.00037733,0.12135,-0.22795,0.17041,-0.19491,0.0032486,-0.040073,-0.12414,0.031153,0.19491,-0.0689,-0.13994,-0.087172,-0.23362,0.10639,-0.1132,-0.15729,-0.13579,0.13552,0.12482,0.18091,0.085495,-0.078715,-0.065867,0.069634,0.19376,0.064086,-0.11152,-0.1108,-0.22285,0.050923,-0.13227,-0.21015,0.20668,-0.15307,-0.026814,0.067527,0.0075091,-0.1586,-0.19052,0.18787,0.038381,0.19554,-0.079017,0.069427,-0.053899,-0.010482,-0.14355,0.079715,0.074521,-0.0048622,-0.05301,-0.14529,0.163,-0.17546,0.096559,-0.079256,-0.11372,0.042343,-0.12244,0.054307,0.046287,-0.17501,0.039244,0.10039,0.093298,-0.02967,-0.19323,-0.036334,0.081861,-0.086002,0.089468,0.15697,-0.12307,0.0023245,0.097463,0.018474,0.019689,0.029431,-0.1853,0.018523,0.16322,0.21239,0.13853,0.031585,0.11008,-0.11466,-0.19532,-0.20269,0.23514,0.14962,-0.16293,0.092217,0.17799,0.23561,0.2061,0.18261,-0.054037,-0.082718,0.19352,0.13208,-0.14184,0.2119,0.11388,0.12849,-0.14773,0.067623,-0.082628,0.18417,-0.042412,0.091762,0.041866,0.10028,-0.080098,0.11492,-0.16463,0.053235,-0.15947,-0.23253,-0.18928,0.18608,0.12752,0.22114,0.18883,-0.21049,-0.16085,-0.038085,-0.15307,0.16367,-0.17819,-0.115,-0.22771,-0.13382,0.19386,0.19298,0.16872,0.18199,0.20958,-0.060355,0.10371,0.20999,0.077975,0.23563,0.12225,0.14652,-0.082494,0.1131,0.027084,-0.05629,-0.13287,-0.13226,-0.18137,0.15823,0.16757,-0.026826,-0.1364,0.18218,0.15073,0.017521,-0.11128,0.21662,0.096388,-0.17893,0.22559,0.17899,-0.085911,0.1325,-0.13392,-0.036938,0.20014,0.009739,-0.16669,-0.078779,-0.06398,-0.045474,0.022557,0.21798,0.01262,-0.14553,0.012081,0.11302,0.11692,-0.21542,-0.042177,-0.17516,-0.10057,0.084922,-0.16738,0.087617,0.20006,0.015459,-0.15709,-0.084449,0.051469,-0.17968,0.1171,-0.21399,-0.22658,-0.22902,-0.047815,0.15849,-0.22309,0.19591,-0.094286,0.069033,0.010749,-0.21254,0.19547,0.12691,0.23429,0.11908,-0.15558,0.19671,0.012668,0.11177,-0.18899,-0.067794,-0.23143,-0.091804,0.050848,-0.18506,0.075133,0.12653,0.032836,-0.1577,-0.18274,-0.072718,0.10346,0.2325,0.13554,-0.026542,0.082641,-0.23124,-0.20131,0.10998,-0.13351,0.1134,-0.16639,-0.11675,-0.19415,0.123,-0.024017,0.1814,0.14587,0.13042,0.0075793,-0.072874,-0.051249,0.031325,0.11684,-0.16513,0.19782,-0.025628,-0.19751,-0.12753,0.20855,0.21556,-0.21833,0.16624,0.11812,0.13952,0.19953,-0.12703,0.074429,0.096457,-0.069648,0.078878,-0.067815,0.14573,-0.065397,-0.087869,0.059338,0.083602,-0.11516,0.020836,0.1366,-0.023452,0.071732,-0.056848,0.082614,-0.17074,-0.1386,-0.11964,0.21661,-0.063424,-0.00064355,-0.1142,0.2353,0.2302,-0.17776,-0.19108,-0.17866,-0.0011367,-0.060081,-0.15428,-0.08454,0.044531,-0.12315,0.052228,-0.05405,-0.11421,0.032382,0.19381,-0.15935,0.010945,-0.086919,0.2313,-0.22363,-0.22596,0.23226,-0.14913,0.04519,-0.020343,-0.049652,-0.052644,0.14977,0.011266,-0.22948,-0.13915,-0.080351,0.11861,-0.15253,0.22225,-0.052498,-0.042323,0.18469,0.11847,0.1999,0.13634,-0.071501,-0.15638,-0.017537,0.19508,-0.079106,-0.21858,0.096621,0.22945,-0.0671,-0.19517,-0.2138,0.059067,-0.017847,-0.11903,0.047643,0.08951,0.18746,0.183,-0.035281,-0.20783,-0.21299,0.22007,0.10419,0.10274,-0.20393,0.21826,0.22329,0.21281,-0.19883,-0.088936,-0.16211,0.2232,-0.10128,-0.10761,0.12349,-0.10903,-0.11609,-0.020617,-0.022656,-0.18361,0.1965,-0.10397,0.083607,0.20501,0.11887,0.033371,0.20055,0.031685,-0.10905,0.22297,0.055786,-0.22997,-0.067102,-0.16055,0.20665,-0.038925,-0.21485,-0.014817,0.14802,0.061236,0.07453,0.02189,0.087874,-0.057429,-0.093762,-0.22031,-0.17756,0.10215,-0.13956,0.033815,0.075234,0.016689,-0.15282,0.22541,-0.13706,0.19387,-0.1875,-0.056698,0.12821,-0.096303,0.198,-0.1622,-0.19794,-0.10628,0.038101,0.21702,-0.11252,0.084294,-0.059092,-0.051115,0.17331,-0.18267,0.025035,0.22166,-0.032388,0.18301,-0.072586,0.18973,-0.228,-0.03397,-0.0414,0.076388,0.092472,0.18098,-0.035116,-0.0093468,0.16141,-0.063775,0.20662,-0.15693,-0.025505,-0.01266,0.10517,0.16114,-0.03736,-0.19527,0.11679,0.070506,0.094681,-0.1454,0.1517,0.22325,0.020452,-0.22016,0.16546,-0.17476,0.054181,0.034252,-0.11032,0.08207,-0.21082,0.053683,-0.14942,-0.025487,0.030318,0.20081,-0.11246,0.151,-0.029942,-0.11194,-0.20525,-0.21626,0.23019,-0.058784,0.011773,0.063902,0.16021,0.20117,0.19116,-0.17463,-0.037763,-0.13947,-0.13467,0.05591,0.22124,-0.18882,0.14265,-0.1222,-0.045909,0.18709,-0.053309,0.021462,-0.16476,0.20064,-0.030469,-0.17239,0.069016,-0.16759,-0.18703,0.014359,0.18688,-0.0667,0.11094,0.20254,0.15633,-0.12364,-0.025838,-0.074172,-0.18953,9.7387e-05,0.17735,0.19858,0.021991,0.053533,-0.10204,0.17792,-0.098078,-0.16373,0.036297,0.14128,-0.21251,0.21307,0.084789,-0.16514,-0.050772,0.20449,-0.18084,-0.06889,0.077306,-0.2065,0.12921,0.12269,0.14618,-0.15027,0.23476,-0.13972,0.23531,-0.2262,-0.21,0.14477,0.024634,0.013598,-0.13052,-0.098871,-0.068916,-0.22961,0.012249,0.041686,-0.00019955,0.076115,0.22365,0.062669,-0.086284,-0.097002,-0.1508,-0.16339,-0.03796,-0.041688,0.10486,-0.10075,0.1879,-0.16539,0.00066991,0.21188,0.23438,-0.13653,0.041985,0.027842,-0.11051,-0.081434,0.063841,-0.1639,0.03889,0.10199,-0.092883,0.19578,-0.015512,0.10694,0.23342,-0.072047,0.12808,-0.067418,-0.03443,-0.039945,-0.0014643,-0.089041,0.055246,0.0088814,0.14941,-0.047707,0.023636,-0.087679,-0.19739,0.095381,0.03016,-0.094395,-0.079692,0.061641,-0.042619,0.15403,0.013351,0.089033,0.10269,-0.057833,0.10198,0.17393,0.010847,0.046125,0.0085644,0.16319,-0.099512,-0.12529,0.10271,-0.20514,0.0037789,-0.1084,0.15557,-0.21945,0.14291,0.23319,0.047692,-0.015704,0.23201,-0.10073,-0.018888,-0.10322,-0.032537,0.051227,0.031481,-0.044518,-0.23566,0.012069,-0.006982,0.035458,0.18061,0.2291,-0.13984,-0.014697,-0.09444,-0.21723,-0.17151,0.22122,0.13743,0.12661,0.13099,-0.18726,0.024753,0.21937,-0.13154,0.20968,0.061952,0.16583,-0.10097,0.10866,-0.20895,-0.014966,0.078619,0.070686,0.19724,0.23161,0.21443,0.15825,0.16571,-0.030413,-0.18292,-0.087499,-0.026461,-0.12737,0.12048,0.082738,0.038031,0.056936,0.20705,0.08585,-0.2067,-0.17109,0.10389,0.032121,0.11495,-0.2354,-0.21752,0.14454,0.15077,-0.21324,0.089469,-0.18405,0.1785,0.073961,0.23306,-0.2324,-0.2269,0.15936,0.20926,0.14441,0.1567,-0.19853,0.1706,-0.22254,0.052656,-0.15439,-0.09362,0.041736,-0.092673,-0.037293,-0.2234,-0.22224,0.091302,-0.099768,-0.1434,-0.093004,-0.1927,-0.18842,0.14104,0.11979,0.031396,-0.12875,0.078418,0.010589,-0.16845,0.050721,0.21462,-0.23184,-0.23438,0.030199,0.17749,-0.14342,0.051887,0.1657,0.072671,0.051009,0.23517,0.15355,-0.13257,0.020373,0.12041,0.20787,-0.23451,0.12763,-0.068432,-0.2308,0.05232,-0.12832,0.033402,-0.15303,-0.17737,-0.02,-0.079178,0.13785,0.020322,0.18398,0.044171,-0.075793,0.15965,0.01288,0.044239,-0.075807,0.00084589,-0.045319,-0.020039,-0.18382,-0.0014495,-0.19564,-0.050707,0.1366,-0.1639,-0.15888,-0.057553,-0.064614,0.039901,0.03913,0.11952,-0.16237,-0.016634,0.13183,0.20388,-0.017193,-0.13638,0.067756,0.13423,-0.14725,-0.13678,0.10418,-0.016515,-0.22262,-0.1359,0.095585,-0.079944,0.16269,0.18633,0.034288,-0.018638,-0.074818,-0.011918,0.042903,-0.18004,-0.056332,-0.19606,0.14466,-0.1501,0.21532,-0.06076,-0.13503,0.11324,0.035138,0.16321,0.098399,-0.22706,0.14908,-0.044386,-0.10417,0.14968,0.1719,-0.20717,-0.021313,0.19356,0.091284,0.19857,-0.080775,-0.13002,0.20268,0.098246,0.22627,-0.098452,-0.15134,-0.027627,-0.22193,0.092389,0.17385,0.056582,-0.023289,0.11686,-0.14961,0.23057,-0.23437,-0.22579,-0.055697,0.19253,0.0236,0.09052,-0.17277,0.085957,-0.026338,0.094475,0.16646,0.10246,-0.02005,-0.014519,-0.14783,-0.085254,0.15317,-0.094516,0.14638,-0.093463,-0.054895,0.0050163,-0.2163,-0.0023535,-0.023758,-0.021175,-0.047118,0.18582,0.17395,-0.15975,0.10949,-0.18488,-0.20066,0.07205,0.003464,-0.10996,-0.22734,-0.091249,0.078724,-0.21817,-0.22898,0.029904,-0.1698,-0.20649,-0.090813,-0.037948,-0.21418,-0.15738,0.015454,-0.22226,-0.033129,-0.15219,-0.1634,0.092638,-0.18142,-0.17862,0.13442,0.044068,0.21466,-0.063002,-0.11385,-0.021813,0.0011925,0.17976,-0.23478,-0.016782,0.10426,-0.1298,-0.11977,0.11391,-0.22585,0.055851,-0.18248,0.11716,-0.20153,0.14491,-0.22312],"b1":[-0.19812,0.0034735,0.18573,-0.20185,-0.10514,0.20701,-0.039527,0.097648,-0.22675,-0.074124,-0.1197,0.19871,0.097826,-0.17199,0.038002,-0.002709,-0.096843,-0.1346,-0.078215,0.18579,-0.16896,-0.1679,-0.072719,0.0041004,0.064161,0.007073,-0.05674,-0.14292,-0.042293,-0.094883,0.19043,-0.22943,-0.15034,-0.19177,-0.043076,0.18368,0.2066,-0.20519,-0.010212,0.13835,0.1039,0.19306,-0.006538,-0.15837,0.15592,-0.080826,0.12204,-0.058086,0.1002,0.212,0.21917,-0.2145,-0.15591,-0.097455,-0.15031,0.22616,-0.020817,-0.15635,-0.10489,-0.13019,0.096164,-0.20559,-0.21977,-0.23235],"W2":[0.053816,0.061807,-0.077635,0.030997,0.092273,0.018163,-0.026448,0.0092353,-0.013403,0.062937,-0.084876,0.063388,0.070453,-0.075734,0.10207,0.12277,-0.049279,-0.035012,0.062294,-0.097928,0.049432,0.029163,0.078791,-0.10858,-0.10385,0.056141,0.045026,-0.11635,-0.069707,-0.11437,-0.089553,-0.0564,0.10344,-0.024881,0.071794,0.11871,0.056967,-0.1119,0.062903,0.047679,0.096883,-0.1233,0.076877,0.10232,-0.1163,0.013078,0.10671,-0.090914,0.041015,0.055235,0.032761,0.12428,0.10235,0.10724,-0.015581,0.10484,-0.11649,-0.067454,-0.026735,-0.037132,0.11546,0.058958,0.080477,0.085026,-0.093375,-0.014478,0.018253,0.032512,0.064279,-0.049738,-0.037692,0.10459,-0.033548,-0.08683,0.084755,0.084644,-0.039196,-0.02499,-0.092235,-0.10439,0.047006,-0.053399,0.099512,-0.10009,-0.017278,0.002699,0.064243,0.10117,0.084651,0.055025,-0.057374,-0.089268,-0.11183,0.0062006,0.12124,-0.023743,-0.0052623,-0.090837,0.038376,0.079248,-0.12324,-0.088015,0.092588,0.029596,-0.0077933,0.022345,-0.019005,-0.087371,-0.1168,0.082213,-0.014867,-0.046423,-0.032264,-0.068178,-0.037023,-0.1073,0.093543,0.051043,-0.06304,-0.042664,0.05608,-0.046288,0.032962,0.034418,-0.078687,0.031313,0.007648,0.10917,-0.045227,-0.032134,0.1077,-0.10208,0.0090311,0.12044,-0.056046,0.11984,0.11092,0.11629,-0.011928,0.11308,-0.054465,-0.042788,0.047279,0.026406,0.068909,0.11879,-0.078249,0.066341,0.041821,0.065946,0.059272,-0.046759,-0.098795,0.10005,-0.071279,0.079916,-0.11908,-0.021625,0.0013249,0.021628,0.010104,0.039388,-0.013918,0.030613,0.1237,-0.080882,-0.0068246,-0.047715,0.10968,0.107,-0.0034087,-0.043329,-0.077233,0.089442,-0.008608,0.11773,0.071283,0.10941,0.098865,-0.08123,0.036588,-0.051832,0.062719,-0.011239,0.010821,-0.086451,-0.11172,0.047072,0.029048,0.010858,0.084899,-0.052197,0.044373,-0.068845,0.0259,-0.028537,0.087541,0.10931,0.10857,0.005623,0.073712,-0.12489,-0.073324,0.02234,0.00069712,-0.098134,-0.055326,-0.058382,-0.12385,0.011921,0.085212,0.050733,-0.059392,-0.11478,-0.10085,0.0023187,0.085989,-0.050622,-0.068018,-0.066682,-0.010821,-0.11871,-0.11031,0.12305,-0.059615,-0.022545,-0.033444,-0.10981,-0.022037,0.038265,-0.050757,-0.0053275,-0.00059794,-0.12444,0.09084,0.10097,0.085226,-0.04105,0.06532,-0.11712,-0.030923,-0.025423,-0.044144,0.0525,-0.056957,-0.014488,-0.036094,-0.11739,-0.020643,-0.10593,0.072888,0.066808,0.1171,-0.041975,0.0063565,0.024486,0.12478,0.11458,-0.064692,-0.10636,-0.11266,-0.060195,0.1051,0.041981,0.12061,0.092653,0.0018122,-0.077472,0.12206,0.10027,0.054118,-0.068283,0.098472,0.011377,0.082654,0.052171,0.066376,-0.10968,-0.06931,0.074971,-0.026042,-0.10875,0.11367,-0.0027032,0.10084,-0.097702,0.043037,-0.047084,-0.052602,-0.026071,-0.046268,0.068495,-0.02375,0.094777,0.028523,-0.019314,-0.0722,-0.11446,-0.036465,-0.11575,-0.023159,0.002043,-0.0080555,-0.061402,0.086758,0.070397,-0.030797,-0.049388,0.078586,0.10875,-0.11445,-0.027007,-0.0116,-0.045258,0.10671,-0.018464,0.10598,0.00061795,-0.013559,-0.072913,-0.041563,0.040279,0.055292,-0.0044475,0.11911,-0.086517,0.047927,0.11258,-0.021735,0.099239,0.0020605,-0.093606,-0.068577,0.046527,-0.054094,0.030064,0.12303,0.04246,-0.011699,0.031244,-0.072018,-0.10503,-0.093962,-0.10489,0.025652,0.024348,-0.053121,-0.12227,0.067713,-0.070926,-0.020868,-0.10481,-0.07052,0.052145,-0.11647,-0.07128,0.093716,-0.064106,-0.052019,-0.035097,0.053432,-0.081996,0.012533,0.05105,-0.0090742,0.022602,-0.095356,0.056512,0.046716,-0.015679,-0.10336,0.049997,0.081568,-0.021863,0.058917,0.046332,-0.049996,-0.0086775,0.12443,0.00059013,-0.099514,-0.009116,0.062187,-0.040803,-0.06546,0.10297,0.066126,-0.021237,0.0063861,-0.01322,0.029021,0.0044424,-0.075642,0.023159,0.0032693,0.0080817,-0.047636,0.032028,-0.10108,0.037365,0.067737,-0.013757,-0.0971,-0.0004544,0.00017744,-0.10803,-0.088412,0.11562,0.093477,0.069275,0.086595,0.04812,0.070349,0.08279,-0.029201,-0.01589,0.089131,-4.5016e-05,-0.081336,-0.096925,0.069909,0.10354,0.097077,0.020802,0.086285,-0.11477,-0.090058,-0.12028,0.10071,-0.0011311,-0.057558,0.042297,-0.046792,-0.080168,0.048212,0.022887,-0.089515,-0.082333,0.058609,0.095047,0.010176,-0.062786,0.060359,0.021801,-0.10943,-0.081006,0.02736,0.077347,-0.040158,0.060442,-0.077414,0.11962,0.089068,0.023413,0.055612,0.04352,-0.073762,-0.00109,0.033333,-0.028214,0.11987,-0.048205,-0.11163,-0.05951,-0.11601,0.10301,-0.056114,-0.087947,-0.013512,-0.084226,-0.065297,0.063726,-0.093849,0.058949,0.091155,-0.00028038,0.055505,-0.07002,0.097477,0.12143,0.029705,0.11391,-0.12415,-0.013725,0.024837,-0.10865,0.060829,-0.047639,-0.04521,-0.099177,0.051102,-0.090953,-0.026526,0.055529,0.094168,0.028266,-0.04663,-0.054371,0.07016,0.023192,0.10523,0.047073,0.1007,-0.10073,0.10049,-0.057432,-0.033461,0.00074817,-0.023441,0.024726,0.11139,-0.074686,0.038623,-0.10046,0.019627,0.10298,0.084285,0.10705,0.067666,-0.010342,0.032637,-0.052232,0.1061,0.062588,-0.09149,0.10808,-0.0018549,-0.0055565,-0.034211,-0.03298,0.0062563,-0.061024,-0.11628,-0.064388,-0.024875,0.094393,0.091957,-0.074894,-0.0047997,-0.036077,-0.066871,-0.021981,-0.043372,0.069869,-0.061992,0.019232,-0.070539,-0.039013,0.098403,-0.061367,-0.0075163,0.11938,0.042783,-0.063625,-0.07505,-0.043834,-0.039144,0.054423,-0.027791,0.10542,-0.068585,-0.039088,0.04551,0.099832,0.11957,0.020007,0.0052689,-0.056004,0.070627,-0.072456,-0.032856,-0.10447,-0.12017,0.069869,0.0084921,0.099647,0.099466,0.065594,0.050024,-0.03244,0.066389,0.060108,0.043272,-0.0036084,0.018671,0.00055461,-0.090716,0.029017,-0.091893,0.06065,-0.074476,-0.040831,-0.059282,0.098664,-0.088027,0.063827,0.062691,0.088384,0.031319,0.068144,0.098813,0.024622,0.042502,-0.097742,-0.033529,0.011334,0.015145,-0.044163,-0.12392,-0.032508,0.047855,0.10763,-0.11288,0.059679,-0.11861,-0.11954,-0.078281,-0.01651,0.034912,-0.095064,0.096305,0.11304,0.0076908,0.10175,-0.056589,-0.049449,-0.016131,0.013658,-0.087198,-0.10009,0.049379,0.036041,0.12228,-0.050964,0.044143,-0.050442,0.061706,-0.0069244,0.092663,0.069446,0.10404,0.064237,0.0046962,0.10772,-0.073423,0.1179,0.12215,0.11941,-0.05839,-0.066232,0.0079085,0.038925,0.062703,0.050838,0.10644,-0.031318,-0.041009,0.0419,0.034833,-0.072916,0.012091,-0.094906,-0.036671,-0.049059,0.10957,-0.11252,-0.073803,-0.12233,0.031526,-0.096211,0.040443,-0.086826,-0.080073,-0.063859,0.018759,0.11486,0.11709,-0.0094437,-0.12244,-0.041297,-0.047639,-0.026587,0.047761,0.062904,0.055422,0.035709,-0.050603,-0.001326,0.015908,-0.063849,-0.011182,-0.015604,-0.1181,0.08474,-0.012638,-0.10806,0.098897,-0.067259,0.044255,0.12396,0.0057866,0.035963,0.049666,0.094474,-0.038353,-0.07034,-0.0097821,0.097756,0.010748,0.086851,-0.00092936,0.038353,0.0043465,0.0033932,-0.11895,-0.10928,0.010391,0.061867,0.083969,0.0054237,0.05269,0.05228,-0.10791,-0.10987,-0.096918,0.0021491,-0.07904,-0.040002,-0.018702,0.04877,0.028982,0.11596,0.11275,-0.079745,-0.00039379,0.020642,0.10912,-0.03874,-0.049125,-0.079182,0.092108,-0.035413,-0.046816,0.084546,0.11502,-0.0052677,-0.088113,0.10185,-0.042751,-0.057603,-0.087878,-0.060117,-0.097896,-0.072152,-0.11387,-0.025194,0.050259,-0.094891,-0.00017457,-0.046095,0.060462,0.10827,-0.01657,-0.062912,-0.096046,-0.07344,0.03609,0.02868,0.067316,-0.018574,0.064229,-0.11137,0.033602,0.12135,-0.12371,-0.064891,0.080021,-0.019544,-0.06663,0.076258,0.0083792,0.0048959,-0.037967,0.09418,0.069337,0.022393,0.019076,0.064637,0.077876,-0.051275,-0.013695,0.054878,-0.060572,0.11688,-0.085625,0.057681,-0.089789,0.040133,0.087307,0.015069,-0.012528,0.079489,-0.089755,-0.084333,-0.10654,-0.076944,0.0032443,-0.056681,0.027848,0.0042181,0.10403,-0.054201,-0.034196,0.082674,-0.031607,0.11967,-0.049648,-0.001369,-0.029616,0.058318,0.047896,-0.066566,0.082368,-0.0079428,-0.03161,-0.0025215,0.086993,0.12262,0.060824,0.021873,0.081579,-0.052271,-0.065325,-0.036098,-0.080903,0.053746,0.011874,-0.042767,-0.01269,-0.0024785,0.10718,0.11158,-0.096231,0.045812,0.048268,0.047796,-0.017041,0.031261,0.031455,0.12166,-0.1198,-0.047434,-0.0841,-0.060634,0.024542,0.076235,-0.094527,0.081301,0.10441,-0.061613,0.021817,-0.064172,0.026773,-0.057953,-0.048694,-0.083677,-0.10424,0.099752,-0.015785,-0.0034678,-0.062209,0.087125,-0.071547,-0.050558,-0.097577,-0.10511,0.11097,-0.096524,-0.017257,-0.036183,0.045786,0.033434,-0.095824,0.11226,-0.12452,0.012363,-0.010443,-0.028968,0.085183,0.10554,0.016283,-0.04415,0.092931,0.078534,0.022451,-0.034189,0.00527,0.11141,0.013556,-0.024633,-0.10583,-0.066985,0.090279,-0.0044017,-0.0083241,0.04867,-0.082241,-0.0084441,-0.035157,0.065403,0.10173,0.078488,0.093194,-0.11171,-0.044377,0.014802,-0.10617,0.033909,-0.081935,0.053564,0.10117,-0.10693,0.10474,0.058325,-0.08249,0.11965,-0.10826,-0.084152,-0.062181,-0.0063298,0.022446,-0.036684,-0.11848,-0.014429,0.094839,0.096242,0.062574,0.018149,0.031059,-0.096364,0.050617,-0.1244,-0.051621,-0.03285,0.091792,-0.0036438,-0.056939,0.021839,-0.10372,-0.033095,0.034619,-0.0082785,-0.013127,0.076397,-0.094954,-0.063116,0.121,0.024874,-0.020239,0.064748,0.075198,-0.020888,-0.052068,-0.020432,0.045389,-0.015958,0.07275,-0.10194,-0.061329,0.095292,0.016399,0.025171,0.041112,-0.029537,-0.049988,0.035861,-0.033129,-0.051637,0.016515,0.030235,-0.011286,-0.084537,-0.0189,-0.070841,0.06579,-0.082825,0.099667,0.049786,-0.10704,0.092763,-0.12362,-0.0072677,-0.078045,-0.10753,0.012385,-0.060607,0.090354,-0.098264,0.10375,0.075412,0.10948,-0.036604,-0.076619,-0.083046,0.10395,-0.062172,-0.015391,-0.019267,0.021505,-0.10257,0.10079,-0.092492,0.12294,-0.048911,-0.055803,-0.017182,0.036995,-0.023161,-0.12476,0.087923,0.12381,0.063066,0.12232,0.034069,-0.009795,-0.099562,-0.10925,-0.086062,-0.031715,0.072788,-0.051573,-0.0048549,-0.0017641,-0.08171,-0.0033838,0.12069,0.099907,0.095202,-0.012328,0.0022169,0.068336,-0.041578,-0.050659,0.10695,0.0071364,-0.084401,0.10533,0.020747,0.066882,-0.10856,0.023196,0.076456,-0.018033,-0.071051,0.10001,0.05814,0.035601,0.029562,0.0027589,0.071683,-0.027326,-0.073581,0.047731,0.033349,0.047594,-0.013884,-0.016588,-0.0099349,0.03296,-0.09592,-0.11651,0.046774,-0.068438,-0.010515,0.034654,0.017532,0.080583,0.016385,0.030947,-0.011189,0.018451,0.045834,0.085277,-0.11844,-0.05207,-0.11217,-0.049837,0.076197,-0.11844,-0.112,0.072378,-0.073817,0.091358,0.038949,0.031377,0.099302,-0.11579,0.091537,0.040537,-0.083764,0.030414,-0.034837,-0.050174,-0.013538,-0.058933,0.1093,0.10759,-0.013335,-0.11085,-0.0076469,0.0082588,0.083553,0.0040218,0.036381,0.033167,-0.070925,-0.077536,-0.11172,-0.0009816,0.038716,-0.0088881,0.12133,-0.023845,-0.081566,0.020833,-0.035201,-0.017136,0.12112,-0.0035866,0.10919,0.016693,-0.046503,0.091645,-0.071204,0.0041359,0.028097,0.056104,-0.11533,0.006132,-0.032365,0.081046,0.042055,0.0501,0.075157,-0.027985,-0.0080087,0.10028,-0.10075,-0.086402,0.0091444,-0.049516,0.0071589,0.11042,-0.01449,-0.10658,-0.056822,0.1148,-0.027461,-0.05481,0.056266,0.015475,-0.11021,0.1041,0.070391,0.10865,0.0547,-0.042144,-0.040806,0.060578,-0.024232,0.024507,-0.12112,-0.06179,0.046431,-0.0061624,-0.060094,-0.10903,0.079445,-0.025132,-0.12282,0.1206,0.060828,-0.074767,-0.091229,0.12079,0.00052191,-0.075178,0.071931,-0.026037,0.0085629,-0.065117,-0.10587,-0.083015,-0.013725,-0.090493,0.1232,0.0013529,-0.047854,0.049403,-0.11082,-0.063937,0.04695,-0.10621,0.0623,0.010507,-0.10423,-0.12405,0.039506,0.059084,-0.024988,-0.11053,-0.072043,0.013285,0.0045476,0.031997,0.022103,-0.006552,0.065966,0.12125,0.1041,0.11358,-0.042188,-0.042664,-0.013825,0.036945,0.050597,-0.011142,-0.080741,-0.094313,0.12034,-0.033607,-0.016896,-0.076608,-0.06197,0.027455,0.052648,-0.049415,-0.046009,0.09902,-0.064377,-0.093261,-0.019502,0.11894,0.027199,0.017272,-0.015564,0.078111,-0.061956,0.084751,0.029531,0.013898,0.017208,-0.077091,0.092838,0.065651,-0.097765,-0.11639,-0.032179,0.083044,-0.061541,0.11585,-0.062847,-0.11291,0.054986,-0.075543,-0.019705,-0.038988,-0.0099324,-0.10892,-0.11465,0.053735,-0.014164,-0.075404,-0.0031843,-0.11409,0.03318,0.059363,0.12123,-0.10183,-0.015157,0.067837,0.11456,-0.088934,0.05312,0.051608,0.075359,-0.086177,0.089202,-0.054445,-0.076944,0.02482,0.10589,-0.082778,0.066739,-0.014316,0.039905,0.097509,0.03394,-0.10377,-0.037634,0.02481,-0.10545,0.020781,-0.067121,-0.024847,0.044718,-0.1006,-0.080252,0.057013,-0.12363,0.086024,-0.096385,-0.0020127,0.02566,0.049324,-0.077583,0.016822,0.053823,0.10721,-0.094069,-0.062146,0.036415,-0.0040128,-0.084353,-0.10521,-0.11099,-0.087469,-0.053221,-0.0868,-0.10966,0.0097574,0.073307,-0.058936,0.0125,-0.001541,0.058429,-0.086688,0.0059346,0.11667,0.08924,-0.12389,-0.018817,0.0011652,-0.041275,-0.082123,-0.086978,0.083058,-0.040468,-0.0080443,0.036679,-0.076724,0.011141,0.074352,-0.073086,0.036367,-0.0042695,0.068729,0.08306,0.033163,0.003777,-0.1076,0.049769,0.076208,-0.045403,-0.12412,0.1013,-0.029341,0.025009,-0.035139,0.079716,0.12191,0.078355,-0.03978,0.087599,0.060991,0.012195,-0.10069,-0.053674,-0.12367,0.083604,0.12356,0.072814,0.03994,0.029543,0.12033,-0.063372,-0.041966,-0.11223,-0.012378,0.0085744,0.034218,-0.086961,-0.014465,-0.103,-0.10168,0.016293,-0.12202,0.033285,-0.11515,-0.086978,-0.025937,-0.11929,0.10095,0.10242,-0.065291,0.026185,0.063947,0.039722,-0.016744,-0.1179,0.090892,-0.10964,-0.02315,0.0077539,-0.041168,-0.045719,-0.10803,0.0068874,-0.014193,0.10898,-0.041153,0.096614,0.0059175,-0.05616,-0.029727,-0.014185,0.0012948,-0.020594,0.037097,0.10294,0.019648,0.045277,0.07719,0.026944,0.057621,0.065569,0.117,-0.11408,0.042774,-0.0056639,-0.022449,-0.048193,0.07515,0.11435,-0.10201,0.067535,0.086194,0.021847,0.0014725,0.096191,0.0037061,-0.031178,-0.0092306,0.040104,0.031292,-0.0067441,0.039458,0.033665,-0.10126,0.031147,0.076481,0.014335,-0.01141,0.095754,-0.10921,-0.057055,-0.056499,0.10801,-0.1209,0.012397,-0.12109,-0.0041105,0.046592,-0.029232,0.12134,0.00039792,-0.063729,0.032233,0.065008,-0.00024834,0.10693,-0.079115,0.053335,0.070979,0.062086,-4.5851e-05,0.035683,-0.098064,-0.098094,-0.0077696,-0.015667,0.092816,0.090766,0.084756,-0.057254,-0.09813,-0.11725,0.045239,-0.11264,-0.12478,-0.063173,-0.10554,-0.049261,-0.078693,-0.064129,0.11884,-0.023556,0.10369,0.0027734,-0.016074,-0.036598,-0.089353,-0.10043,0.086553,-0.03852,-0.12187,0.11472,0.0023187,-0.083644,-0.098257,-0.10497,-0.10961,0.11312,0.086187,0.010224,-0.10653,-0.032694,-0.11742,0.043078,-0.03319,-0.026749,-0.039002,0.058606,0.067661,0.027382,-0.015653,-0.012353,-0.0021842,-0.093083,0.12197,-0.05391,0.072726,-0.070075,0.00083914,0.042791,-0.11477,0.057337,-0.095681,0.017443,-0.024787,0.071653,0.12149,0.028171,-0.0035693,-0.061931,0.046605,-0.060165,0.051633,-0.054178,0.084789,0.095879,0.076648,0.0012521,0.057968,-0.1139,0.10137,-0.032477,0.04557,-0.021167,-0.041973,-0.058701,0.080628,-0.068006,-0.022043,0.063056,0.012598,-0.10517,-0.1243,-0.060772,0.11529,-0.088878,0.068892,0.089477,-0.051812,-0.055201,-0.08993,0.019498,-0.017475,0.0060731,0.05422,0.05248,-0.039437,0.0085851,0.029693,0.0026608,0.025014,-0.050636,0.10246,-0.012821,-0.015993,-0.11219,-0.090609,0.0038883,-0.019332,-0.062847,0.065431,-0.011191,0.043961,0.10528,-0.057468,-0.061522,-0.025118,-0.010585,-0.06252,-0.030011,-0.003603,0.05607,0.11565,0.092564,0.013229,-0.0078771,0.032019,-0.0051027,-0.016405,0.042984,-0.1017,-0.1063,0.00050633,-0.037887,-0.061828,-0.11637,0.083732,-0.0049805,-0.067159,-0.050918,0.032863,-0.090654,0.0080283,-0.0015415,0.042583,0.049587,-0.081672,0.053974,0.09439,0.0080474,0.063682,-0.047323,0.024829,0.036525,-0.057735,0.077177,-0.11819,-0.046955,-0.073548,-0.074205,-0.075744,-0.11779,0.021452,-0.024727,-0.10525,-5.1409e-05,-0.020823,0.051566,-0.097911,-0.035166,0.025729,0.052986,0.0094562,0.033875,0.12495,-0.043302,0.085193,0.10767,-0.11058,0.030237,0.070806,-0.019498,0.068987,0.0042517,0.09516,0.0026914,-0.080028,0.09493,0.037176,0.10635,0.03103,0.066376,0.077939,0.021048,-0.029058,0.025817,-0.087156,0.0042704,-0.040177,0.007903,-0.09897,0.076378,-0.11533,0.05353,0.08232,-0.11456,0.11294,-0.092923,-0.024546,0.064775,-0.039638,0.1114,-0.055144,-0.016736,-0.081711,-0.057991,0.12198,0.094008,0.0092038,0.010278,-0.10607,0.094368,-0.018741,-0.052137,-0.099478,0.10277,0.059273,0.075291,0.012943,-0.084821,0.051204,0.014416,0.041947,-0.031126,-0.058989,0.10262,0.041902,-0.050732,0.011162,-0.027172,-0.01069,0.070095,-0.09949,0.11313,0.084132,0.00010741,-0.051129,0.025486,-0.082739,0.081194,-0.066108,0.023884,-0.12298,0.059859,0.084619,0.093823,0.010203,0.073805,0.04262,0.083827,0.070538,-0.10937,0.013178,-0.042615,-0.059687,0.087495,-0.017891,0.019418,0.078704,0.08414,0.066709,-0.021824,-0.11142,-0.12,0.039291,-0.0014834,-0.078976,0.054592,0.11346,0.072297,-0.017634,0.016891,-0.079733,0.058999,-0.096869,0.086299,-0.057094,-0.049577,-0.1047,-0.030228,-0.012091,-0.057616,0.088981,0.071738,-0.11032,-0.012504,0.042027,0.1206,-0.029889,0.076741,-0.0070029,-0.047943,0.076495,-0.11139,0.10473,0.12485,-0.034128,0.049378,0.12465,0.037686,0.048883,0.045899,-0.051141,0.030512,-0.066622,0.10674,-0.053564,0.028576,-0.03621,0.062512,0.0020604,0.068732,-0.033848,-0.073351,0.047924,-0.070348,-0.10263,0.048295,-0.075179,-0.046984,-0.031212,0.0088759,-0.043292,-0.044988,-0.031417,0.087599,0.037428,-0.06018,-0.086404,0.0028963,0.040046,-0.0026157,0.073174,0.10514,0.036636,0.041225,0.07252,-0.042822,0.022173,0.10106,-0.059858,0.0097286,-0.04887,-0.096115,0.066209,0.099882,-0.067529,0.046848,0.03833,0.048808,0.068808,0.1167,0.094875,-0.10938,-0.049003,0.066388,-0.071359,0.024545,-0.053588,0.024826,0.060993,0.039289,0.090804,-0.015042,0.067859,0.040411,-0.039394,-0.088283,0.11436,-0.037269,0.094153,0.078792,-0.0050335,-0.10325,0.010063,-0.060428,0.032527,-0.049686,0.096344,-0.11278,-0.033651,0.019712,0.011925,0.10269,-0.039496,-0.099782,0.08276,0.034929,0.082343,-0.073982,-0.073418,-0.050493,0.0088872,0.042357,-0.071832,-0.011769,-0.021604,0.11405,-0.04508,0.12113,-0.076666,-0.051508,-0.094018,0.092088,-0.08596,0.051742,-0.045933,0.12456,0.017632,-0.10855,0.021513,0.015197,-0.1209,0.025086,0.11926,0.035972,-0.00066476,-0.025913,0.033218,-0.055689,0.1231,0.10806,0.058396,-0.04656,-0.11737,-0.071959,0.12154,-0.11473,-0.11935,-0.0090092,0.039769,-0.12441,-0.11605,0.0006796,-0.041929,0.087085,0.035889,-0.1085,-0.11266,0.085844,-0.022165,-0.054682,0.039373,-0.024567,0.059781,0.031699,-0.054122,-0.10019,0.067668,-0.075101,-0.013826,0.017091,-0.072746,0.068091,-0.087923,0.030701,0.013369,0.045864,-0.12268,0.0072207,0.060938,-0.080027,0.030931,0.00048979,0.10604,-0.026468,0.00085399,-0.054367,-0.030807,0.035785,-0.12056,0.094826,0.089888,0.052937,0.093575,-0.038911,0.028472,0.0063593,-0.086437,-0.048056,-0.044376,-0.030907,-0.11099,-0.087911,-0.01187,-0.019015,-0.11347,0.026708,0.068062,0.1041,0.1052,-0.087346,-0.04006,-0.0593,0.022926,0.033496,0.027811,0.073046,0.065947,-0.067093,0.08581,0.084321,0.016542,-0.10875,-0.076666,0.034835,0.043218,0.11656,0.063619,0.045305,-0.0042634,0.085234,-0.045498,0.050896,-0.059536,-0.0011667,0.073874,0.057356,-0.028051,-0.0015828,-0.069392,0.0579,0.08411,0.043028,-0.12096,-0.089482,0.083682,-0.017898,0.076766,0.092138,-0.036616,-0.07334,-0.1176,0.047815,0.064111,-0.021671,-0.12135,-0.080514,-0.0067351,0.05705,-0.041885,-0.080695,-0.087022,0.11184,0.045265,-0.10149,-0.077197,-0.10611,0.018085,-0.050758,-0.00042315,-0.019775,-0.10942,-0.1117,-0.096954,-0.052351,0.019442,-0.058785,-0.0044556,-0.014973,0.11432,-0.056984,0.11744,-0.095961,-0.10429,0.040649,-0.072749,0.064116,-0.069156,0.098433,0.12104,0.0080024,0.026715,0.11654,0.074102,-0.10912,-0.0040014,-0.11283,0.095486,-0.022896,-0.00087132,-0.076799,-0.067969,0.016223,0.10313,-0.062832,0.011812,0.11315,0.11203,-0.024438,0.11716,0.045521,0.11385,0.0037087,-0.10594,-0.034025,0.037491,0.066659,-0.12453,0.097231,-0.11213,0.07324,0.12333,0.030804,-0.023591,0.068826,-0.0371,-0.092592,-0.088711,0.058773,0.095466,0.0050616,-0.1212,-0.12283,-0.028226,0.067477,-0.083299,0.033693,-0.068321,0.1017,-0.032754,-0.02605,-0.10964,-0.11196,0.0084481,0.020211,0.067533,-0.1093,0.021903,-0.018057,0.073324,-0.056837,0.037241,0.050371,0.062792,-0.042874,0.040226,-0.024498,0.03366,-0.076863,-0.099326,-0.10225,-0.078578,-0.052903,0.018606,-0.027342,-0.071159,0.0010501,-0.039475,0.077054,-0.10295,-0.046139,-0.080329,0.015424,0.0068195,-0.0071907,0.12402,-0.047685,-0.017966,0.032295,0.10433,0.094747,0.01428,-0.047291,0.041065,0.078648,-0.0026677,0.068629,0.1023,-0.066971,-0.027635,-0.11254,0.028694,0.089086,-0.024274,0.019946,0.039942,-0.0026662,0.09718,0.018215,-0.12287,-0.10322,-0.12385,0.005152,0.067571,-0.016491,0.11239,-0.022488,0.025556,0.11272,0.063261,-0.0039879,0.1204,-0.074683,0.046559,0.078942,-0.077399,-0.11742,0.039983,-0.047424,-0.06308,0.024863,-0.090679,0.11243,-0.011221,-0.040032,0.1045,0.034805,0.023815,-0.059766,0.11913,-0.038071,0.10397,-0.0091886,0.062705,0.08789,-0.093063,-0.083313,-0.12361,0.090158,0.1075,-0.045684,-0.061222,0.020924,0.067297,0.030854,-0.026051,-0.079509,0.10691,-0.080952,-0.12079,-0.049909,0.024926,0.046461,0.048333,-0.072412,-0.047974,-0.055585,-0.060532,-0.10528,0.025587,-0.036352,-0.12031,-0.07299,-0.075068,-0.05392,-0.077238,-0.021677,0.044795,-0.10116,-0.010708,-0.035974,-0.063907,-0.027756,-0.052979,0.0040185,-0.090231,0.023705,0.11477,0.10358,-0.056045,0.038529,-0.11815,0.10524,-0.12457,-0.1117,-0.1122,-0.11608,0.016929,-0.033054,0.029918,-0.0077343,-0.0026851,-0.04516,-0.074162,-0.10466,0.063073,-0.06445,-0.025422,0.060712,-0.030958,-0.031517,-0.083331,-0.10695,0.059996,-0.028202,0.078601,0.0082271,-0.00015877,-0.11285,0.0027598,-0.02825,-0.071329,-0.02893,0.0065348,-0.094185,0.020785,0.086977,0.024693,0.11932,0.05833,-0.098581,-0.049202,-0.03008,0.037393,-0.0035652,0.10059,0.014521,-0.079164,-0.045827,-0.104,-0.034466,0.061457,0.0012071,-0.1192,-0.10816,0.045318,-0.10971,-0.099702,-0.074527,0.11914,-0.035543,-0.051538,-0.084402,0.079963,-0.020184,0.024104,0.029861,0.035253,0.080011,0.0064867,0.01293,-0.0081175,-0.097133,-0.028606,0.11897,-0.08859,-0.078889,-0.12404,0.0075797,-0.11692,-0.064024,0.11518,0.051771,0.066596,0.021404,-0.10622,-0.058165,-0.10119,-0.077295,0.042568,-0.034669,0.12216,-0.09112,-0.10668,0.12343,-0.10798,0.10637,0.03366,-0.11393,0.10887,-0.034031,-0.051542,-0.097512,-0.10573,0.027831,-0.12278,0.051366,-0.030889,0.043868,-0.030605,0.043227,-0.0034145,0.03674,-0.050855,-0.085981,0.015919,-0.079785,-0.077489,-0.1202,-0.039843,-0.083524,0.097344,0.090081,0.029658,0.10156,0.060189,-0.11775,-0.012507,-0.02029,-0.075895,0.035601,-0.039014,-0.059772,-0.0014572,-0.083109,0.10346,0.079098,0.11832,-0.02214,0.040824,-0.0050278,-0.10343,0.056552,-0.087312,-0.045123,-0.055978,-0.12195,0.0044836,0.020478,-0.009293,0.091932,0.0059934,-0.022769,-0.06818,-0.074238,-0.017771,-0.073363,-0.082459,-0.016533,-0.022071,-0.076303,0.073036,0.10601,-0.085229,0.054751,-0.058001,-0.012979,0.11669,0.015995,-0.11918,0.11491,-0.0052887,-0.062592,-0.066014,0.10719,0.0021097,0.069042,0.082154,-0.048516,0.01061,-0.080857,0.10438,-0.066099,0.083028,0.031671,0.077108,-0.088071,-0.0038874,0.06477,-0.0049894,-0.0017935,0.060913,-0.093425,-0.025061,0.056936,0.061306,0.1161,-0.024727,0.029617,-0.061503,-0.020979,-0.062752,0.092634,0.00076143,0.050852,0.068756,0.023294,0.013302,-0.0091489,-0.10588,0.02014,-0.027693,-0.10507,0.11646,-0.013326,-0.062386,-0.12169,-0.11513,0.0476,-0.057063,-0.053997,-0.072328,0.1009,-0.030049,0.081023,0.099235,-0.096913,0.093256,-0.02387,0.11972,0.063848,-0.12109,0.023222,0.043941,-0.045347,0.094789,-0.10352,-0.039663,0.1191,0.12208,0.062443,-0.074618,-0.10755,-0.10163,-0.031248,0.070812,0.039575,-0.01518,0.11242,0.098158,-0.058423,-0.054132,-0.0014666,0.02594,-0.00089484,0.048258,0.086243,-0.022539,0.061386,0.017001,0.047982,0.05146,-0.03341,-0.055732,0.053429,-0.080031,0.065625,-0.080203,0.085754,0.050155,-0.030623,0.071449,-0.041166,0.026631,0.036803,0.012766,0.025102,-0.0024815,-0.036112,0.069739,0.049304,0.046624,0.084389,-0.065402,-0.029042,-0.0035629,0.10087,-0.099539,-0.0717,-0.029775,-0.10678,-0.098759,0.085628,0.0058311,-0.10056,-0.02064,-0.0041096,-0.04444,-0.10456,0.06803,-0.015439,0.12204,-0.095733,-0.068623,-0.0064941,-0.087047,0.091097,0.096666,0.11324,-0.078908,0.088938,0.086792,-0.049737,0.013716,0.059565,0.089449,-0.11675,0.12445,-0.031428,0.050931,-0.077636,-0.096193,-0.084654,0.073669,-0.061658,0.072664,0.037789,0.049722,-0.027803,-0.03954,-0.058485,-0.069871,0.11525,-0.0067933,-0.053604,-0.1163,0.0054379,-0.12408,-0.0014719,0.078926,-0.071996,0.06868,-0.039874,-0.096139,-0.1238,0.062097,-0.095637,0.061035,0.017897,0.067937,-0.093961,0.10931,-0.1245,-0.094879,0.074961,0.0042482,-0.070192,-0.026221,-0.11124,-0.10879,-0.026818,0.095357,0.037331,0.023571,-0.033129,0.11377,0.0011972,0.042207,0.0019868,0.019506,0.041683,0.095923,0.071951,0.015997,0.049975,-0.037591,0.085442,0.03509,0.094335,-0.019517,-0.10206,0.024693,0.05084,0.101,0.048449,0.046185,0.099476,-0.042958,0.11037,0.064087,0.083481,0.089149,-0.10212,0.065107,0.11642,-0.087815,-0.010713,-0.076287,-0.030184,0.018628,0.066864,-0.036289,-0.11837,0.067495,0.070129,-0.022661,0.10701,0.096362,-0.027551,0.004827,0.022019,-0.024495,-0.030795,-0.056425,-0.071086,0.062427,-0.037118,-0.059967,0.11011,0.019985,0.09019,0.11391,-0.017609,0.018645,0.11589,-0.086004,-0.037478,0.017787,-0.0084804,0.03328,0.065728,-0.051427,0.0097331,0.11309,-0.070732,-0.084766,-0.095863,0.07472,-0.11465,-0.060788,0.084424,-0.074935,0.10165,-0.058433,0.019775,0.016363,-0.003066,0.077856,0.10617,-0.078045,0.070104,0.033398,-0.0023293,-0.087401,0.03708,0.09073,-0.10729,-0.11544,-0.12289,0.028883,-0.035917,-0.038828,0.11639,-0.031883,-0.079381,0.011244,-0.068608,-0.036624,0.066029,0.028849,-0.085778,0.119,0.08457,-0.085211,0.054448,0.051365,-0.089694,-0.087849,-0.1035,0.055681,0.021778,0.052827,-0.054903,0.09399,0.015961,-0.099741,-0.031463,0.063792,0.027485,-0.019123,-0.087332,-0.077759,0.10782,-0.071604,0.08858,-0.041839,0.0012494,-0.12172,-0.040633,0.10537,-0.11222,0.062895,-0.1052,0.018232,-0.11333,-0.098954,-0.10091,-0.043344,0.01702,-0.091647,0.03168,0.075286,0.1019,0.11068,0.082299,-0.036808,-0.01152,0.1106,0.062182,-0.033149,0.094375,-0.10924,0.10698,0.069938,-0.091683,-0.10195,0.097753,0.12331,0.010908,-0.048842,0.071177,0.056393,-0.0156,0.10008,0.081022,0.031163,0.064904,-0.11709,-0.058551,0.013702,0.033993,-0.017089,0.047198,0.038079,-0.11553,0.039427,-0.010163,-0.086018,0.0042185,-0.030742,-0.06638,-0.1139,0.10457,-0.075912,0.016789,0.10014,-0.015748,-0.081927,-0.12093,0.020769,-0.06272,0.0091157,0.039928,-0.035417,0.084756,-0.016266,-0.049886,-0.08265,0.037925,-0.077282,0.026276,-0.015776,0.085907,-0.06128,-0.061578,-0.016154,-0.076348,0.047655,-0.045787,0.051284,0.072547,0.072992,-0.022948,0.068217,-0.066191,-0.12454,-0.011896,-0.090633,-0.096841,0.031775,0.10682,-0.049192,-0.007071,-0.090562,0.021847,0.035637,-0.019188,0.095104,-0.1006,-0.016771,-0.069384,0.10976,0.10588,0.12296,0.11501,0.049507,-0.095714,-0.084789,0.029965,-0.1116,0.079135,0.054343,0.029824,-0.1091,0.090931,-0.013229,-0.052455,0.065264,0.010563,-0.055605,0.029257,-0.083357,0.11618,0.10956,0.057648,0.066128,-0.12426,-0.069486,-0.12028,-0.065151,-0.10363,0.092009,0.067439,0.073614,-0.055492,0.095273,-0.018062,-0.032386,0.067304,0.082779,-0.089841,0.119,-0.012616,0.033293,-0.12447,0.013916,-0.061865,-0.078268,-0.052191,-0.00058226,-0.03561,-0.080074,0.089498,0.037187,-0.11633,0.026221,0.030706,0.0045932,0.030353,-0.010466,0.054668,-0.087997,-0.053298,0.093638,-0.077443,0.061329,0.11566,-0.1143,-0.054763,0.10667,-0.0075584,0.024677,0.01779,0.051512,-0.051504,0.016228,0.085148,-0.010545,-0.11468,0.043207,-0.031911,-0.026371,0.065192,0.021907,-0.075619,-0.057684,-0.019001,-0.030883,-0.026462,-0.085439,0.090553,0.064828,0.024668,0.028303,0.014634,0.093467,0.028285,0.019042,-0.068714,0.041699,-0.11694,0.039424,-0.10835,-0.051734,0.065992,-0.074452,0.099534,-0.069065,0.1184,0.038527,-0.054169,0.076235,-0.1107,-0.079186,-0.078314,0.016455,0.01228,-0.10751,0.12062,-0.00011946,-0.06675,0.0029858,-0.053657,0.034487,0.045251,-0.035458,0.0072873,0.074376,-0.081304,-0.027874,-0.018441,-0.082702,0.010181,0.0045941,-0.10097,0.025642,0.11931,0.066487,-0.067805,0.11442,-0.085924,-0.063556,0.055137,0.099443,0.11929,0.10762,-0.068831,0.028603,-0.078489,0.0027604,0.10356,0.061549,-0.11542,-0.053797,-0.10547,0.058884,-0.015868,-0.091378,-0.039943,0.041021,0.011572,0.11729,-0.0016596,0.03932,-0.037866,0.014916,0.0044779,0.10737,0.052376,-0.071237,-0.11107,-0.11893,-0.045395,0.016158,0.1176,-0.012282,0.048874,0.063528,-0.09575,-0.1034,0.047365,0.058264,-0.058204,0.019589,-0.12239,0.0015756,0.03064,0.0011832,-0.019841,0.052029,-0.034358,0.093049,-0.10767,-0.071437,-0.10435,-0.11305,0.092669,-0.030934,-0.098191,0.025926,-0.094657,0.0064617,0.059423,-0.026432,0.064259,0.025656,-0.10031,0.024602,0.08058,-0.028977,0.011814,0.015947,0.010749,0.032494,-0.11968,0.094839,0.054518,0.015436,0.022745,-0.10081,-0.03569,-0.0054371,0.029714,-0.06857,0.013263,-0.038793,0.090985,-0.1073,0.013067,0.084687,-0.097085,-0.0035827,0.057762,0.050441,0.0147,0.050529,-0.087137,0.10411,0.0027879,0.080801,0.027652,-0.013906,0.053542,0.11866,0.1233,-0.10522,0.0075812,-0.089797,0.072831,0.089737,-0.087775,-0.0072245,0.086497,0.082663,-0.093984,0.083929,-0.02213,-0.10631,0.0249,0.058233,0.074965,-0.08499,-0.090535,-0.083986,0.070839,-0.10925,-0.0010541,-0.036733,0.054576,0.024548,-0.063122,0.021833,0.11503,0.02058,-0.061943,0.004185,-0.11466,-0.0802,-0.023218,-0.077894,0.10585,0.024264,0.096818,-0.028464,-0.017384,0.031531,-0.037167,-0.042609,-0.12262,0.094168,0.11313,-0.12377,-0.041357,-0.094548,-0.050741,0.095164,0.066865,-0.009699,0.053388,0.03733,0.068265,-0.10045,0.038638,-0.11839,-0.082208,-0.046582,-0.012179,-0.11796,0.0031109,0.019957,-0.049608,0.040544,0.10923,-0.021352,-0.066572,-0.11073,-0.091275,-0.069136,-0.092409,-0.049144,0.068861,0.039115,0.11267,0.12411,-0.045013,-0.048952,0.017106,-0.099535,0.06799,-0.022497,-0.10467,-0.094373,-0.086134,0.034357,0.095821,0.099032,-0.034419,-0.072607,-0.055479,-0.08539,-0.032228,-0.11289,0.066812,-0.11765,-0.077757,0.083888,-0.093501,0.029883,0.093628,0.12321,0.063249,-0.033546,0.071429,-0.0041253,-0.038543,0.0004071,0.028039,0.083815,0.052471,0.059686,0.0187,-0.0062914,0.052487,0.030065,-0.11961,0.020209,-0.055511,-0.066287,0.048341,0.025561,0.021168,-0.059298,0.057759,0.1173,0.015292,0.051378,-0.10967,0.074312,0.043424,0.056316,0.052127,-0.032878,-0.0075031,0.12091,0.091467,-0.089599,0.099178,0.1244,0.016439,-0.097523,0.02423,-0.025245,0.089873,-0.1201,0.031988,-0.0014661,0.0098404,0.085986,0.0022581,-0.10064,-0.072917,-0.05005,0.013331,0.048237,-0.023332,-0.049335,0.054851,-0.12154,0.087348,-0.014531,0.086979,0.094452,0.013353,0.039541,-0.070701,0.089561,0.073162,-0.019632,0.048722,-0.0070017,0.097661,0.051456,0.091131,-0.11362,0.12179,0.046573,0.060773,0.027854,0.082098,0.11768,-0.010649,-0.10257,0.11478,-0.026361,-0.060285,0.076948,0.06976,0.016735,-0.0078465,-0.023913,0.11461,0.076161,0.074442,0.07971,-0.06542,0.026099,-0.10814,0.072622,-0.1239,-0.12493,-0.12356,0.077083,0.013009,0.00028425,0.019882,-0.047306,-0.037958,-0.084199,-0.030527,-0.076917,0.0032888,0.098213,-0.10334,0.061471,-0.092975,-0.05179,0.024443,0.021508,0.10251,-4.676e-05,-0.047609,-0.051696,0.0036647,-0.093729,-0.098007,-0.053483,0.003211,-0.084418,-0.071354,0.089249,0.11551,-0.039154,-0.10724,-0.047857,0.05045,0.040568,-0.03875,-0.11009,-0.037586,-0.027949,0.071983,-0.061984,0.075021,0.01734,-0.02095,-0.1114,0.12341,-0.02229,0.07865,-0.064659,-0.12173,-0.099638,-0.064061,-0.039809,-0.017652,0.10425,-0.11528,0.06239,0.10518,0.00080453,-0.077955,0.003998,0.029655,0.055308,-0.037996,-0.042896,-0.058971,-0.1209,0.043901,-0.094502,-0.06005,-0.0012863,0.096363,0.11114,-0.09092,0.10841,0.11197,0.10098,0.010883,0.10039,0.060733,-0.089695,-0.065885,0.0023508,-0.088585,-0.04116,0.10078,0.058197,0.10886,0.00095828,-0.063738,0.082731,0.0092153,0.02105,-0.052962,0.051346,-0.092318,0.099747,0.10936,0.045103,0.097341,0.075871,-0.04774,-0.10842,0.016449,0.078485,-0.012788,0.010518,0.092649,0.051612,0.093449,0.018355,0.014012,-0.0299,-0.021094,-0.066433,0.083572,0.11401,0.046389,0.0035517,-0.041263,-0.12342,-0.023146,-0.088738,-0.092283,-0.024752,-0.02459,0.025216,-0.090602,0.089832,-0.11381,-0.059199,-0.047456,0.0077066,0.051673,-0.032941,0.019509,-0.029592,-0.049164,-0.017485,0.025168,-0.12142,-0.087005,0.097656,0.056523,-0.0033422,0.0039475,0.017254,0.029053,-0.085342,-0.034073,-0.11472,-0.098273,-0.023519,-0.016505,0.097768,0.021531,-0.020268,-0.0034631,0.069812,-0.037866,-0.023368,-0.025076,-0.1008,-0.01747,-0.11556,-0.06719,-0.079564,0.093116,-0.11515,0.12044,0.046868,-0.084474,0.10356,-0.027545,-0.10587,-0.017359,0.061776,-0.12154,-0.0093673,0.05086,-0.048716,0.011385,-0.04899,-0.083862,0.097893,-0.088756,-0.0014655,0.041632,-0.069856,0.060355,-0.10381,0.11938,0.05567,-0.017697,-0.10398,0.0038549,0.044339,-0.067889,-0.015742,-0.12457,-0.12496,-0.013576,0.10459,-0.0058832,0.039189,-0.049964,-0.040816,-0.01374,-0.063191,0.076489,0.07795,-0.097175,0.03834,-0.051638,-0.071881,-0.01525,-0.03877,-0.071174,0.018422,0.071347,-0.019288,-0.0087439,0.0094064,-0.053722,0.066176,0.11533,-0.011425,0.0084973,0.10072,0.10238,-0.092988,-0.057888,-0.12262,0.076561,0.097563,-0.045495,0.040097,0.030279,-0.10754,0.049917,0.061335,0.0027491,0.012819,0.029047,0.090051,0.11045,0.017966,0.053282,-0.032703,0.074526,-0.049169,-0.10304,0.058647,0.046361,0.027513,0.053184,0.014875,0.042542,0.050935,-0.067431,-0.0066975,0.018838,-0.018978,-0.1051,0.011857,0.076393,-0.06685,0.12273,0.028507,0.053163,-0.048268,-0.10225,-0.04652,0.003819,-0.056959,0.11132,-0.080004,-0.084191,-0.044338,0.11214,-0.057157,0.11564,0.060071,-0.018993,0.064651,0.059426,-0.063624,-0.025734,0.12108,0.071665,-0.061053,-0.033611,0.070062,0.063458,0.0099085,-0.08043,-0.092196,-0.026384,0.045958,-0.013326,-0.10451,-0.030635,0.12477,-0.10331,-0.097012,0.078579,0.12438,-0.12025,-0.11305,-0.039086,0.12463,-0.070945,0.010687,0.10204,-0.044251,-0.038333,-0.083904,0.0047994,0.11667,0.051114,0.087861,-0.0082814,-0.019855,-0.022332,0.071293,-0.016391,-0.10677,-0.043894,0.048919,0.12187,-0.022729,-0.10883,-0.09204,-0.098351,0.050388,0.092141,0.036967,0.043099,0.081435,0.085465,0.074642,0.0699,0.033824,0.06452,-0.085771,-0.080907,0.033618,0.019453,-0.10989,-0.091062,-0.099509,0.099278,0.081725,-0.065794,0.01886,-0.028751,0.10867,-0.11322,-0.091193,-0.10407,0.072747,-0.062486,0.074451,0.042254,-0.061099,-0.033674,-0.050585,0.055147,-0.050129,0.042421,0.00893,-0.099826,-0.078576,-0.086672,0.065499,0.027085,-0.003143,-0.07443,-0.12385,-0.044236,-0.095668,-0.12433,-0.11922,-0.081649,-0.12152,0.038966,0.046772,0.050383,-0.12444,0.077295,0.02437,0.063917,-0.030722,0.060027,-0.11855,0.042576,0.09912,0.052546,-0.11783,-0.03509,-0.015523,0.065494,-0.0473,0.017978,-0.043881,-0.019857,-0.0024883,-0.071777,-0.086762,0.10319,0.10502,-0.0037843,0.1082,0.096323,-0.078735,-0.04967,-0.085856,0.040414,0.0031613,-0.017142,0.092808,-0.048859,-0.068411,-0.08886,-0.063591,0.12048,-0.060774,-0.034394,0.056339,-0.096004,-0.07587,0.092001,-0.047943,-0.064863,-0.016172,-0.017812,0.022844,0.045828,-0.096381,0.1136,-0.11884,0.042336,-0.03527,-0.052787,0.11693,-0.12046,0.008537,0.080098,0.11175,-0.10568,0.01506,0.12367,-0.12244,0.030531,-0.078321,0.020292,-0.11307,0.0615,-0.02773,0.074705,-0.0018797,-0.017817,-0.030348,-0.11446,-0.053095,0.0041513,-0.096706,0.1097,-0.081296,-0.048699,-0.016716,-0.10126,-0.0009876,-0.060193,-0.10463,0.0030661,0.11066,0.030781,0.1031,-0.0012224,-0.04363,0.10074,-0.066565,-0.11564,0.027358,0.062297,-0.074721,0.043996,-0.044348,-0.015167,-0.027677,-0.026737,-0.10171,0.030635,-0.03288,0.095579,0.020864,-0.10223,-0.095094,-0.065145,0.05986,-0.080706,-0.057184,0.022694,-0.086662,-0.061553,0.11335,-0.066087,-0.041646,0.0894,0.028011,0.098112,-0.11012,0.062481,-0.01912,-0.080081,-0.053537,-0.12091,0.086472,-0.023985,-0.12257,0.1069,0.080963,0.051685,0.12234,0.11288,0.11682,0.11194,0.10158,0.032724,-0.010468,0.0047537,-0.051947,0.058732,0.0036213,0.029491,-0.080518,-0.047066,0.093713,0.012158,0.043136,-0.10913,-0.053528,-0.0031813,-0.013117,0.079793,-0.037723,0.10432,-0.024176,0.048619,-0.088004,0.021217,-0.12187,-0.10725,-0.080001,0.034995,0.0096884,0.012098,-0.013674,0.10503,0.12245,0.053086,0.099407,-0.0061778,-0.045954,0.024301,0.082192,-0.019319,-0.095979,0.041279,-0.031864,-0.060171,0.078953,-0.0042428,-0.071453,-0.074797,0.11772,0.081306,-0.089632,5.9754e-05,-0.0027043,0.059583,-0.10706,0.0018578,0.041649,0.063613,0.01307,-0.061959,-0.12,0.067564,0.11412,-0.03774,-0.11171,0.036573,-0.087637,-0.081671,0.034073,-0.01187,-0.0085026,0.11212,-0.021925,0.076089,-0.038903,0.093013,0.038134,0.11139,0.043597,-0.044277,0.054482,0.1065,0.023692,0.057629,-0.08794,0.06773,-0.11816,0.1105,0.051628,0.0082261,-0.11699,0.11367,0.079705,0.11523,0.049139,0.042097,-0.032379,-0.051225,0.04955,0.043351,-0.0040525,0.019882,0.042939,-0.12079,-0.11054,-0.033275,0.085132,0.060985,-0.11931,-0.037531,-0.013213,0.041055,0.10227,0.0027339,-0.097298,0.0076699,-0.04827,-0.076393,0.069236,-0.016794,0.059065,0.097332,0.012285,0.070406,-0.059036,0.069777,0.0049938,0.083066,0.11951,-0.094557,0.11867,0.09542,-0.1007,0.036643,-0.10176,0.040548,0.01933,-0.11933,0.045377,-0.034335,0.1246,0.122,0.043151,0.09853,0.045148,0.11826,-0.011541,0.030894,-0.020648,-0.002186,-0.037708,-0.049469,0.07231,0.053641,-0.05518,-0.11016,0.06112,-0.11498,-0.0055314,-0.10756,0.10467,0.10178,-0.10273,-0.11622,-0.073906,0.034493,-0.062509,-0.029768,-0.031685,0.022929,-0.059126,0.056852,-0.089448,-0.011127,0.10478,-0.069022,0.095902,0.065058,-0.040377,0.043346,-0.084447,0.01006,0.035408,0.10812,-0.069947,-0.07109,-0.062388,-0.12177,0.025278,-0.10347,-0.033555,-0.055773,0.0069889,0.037919,-0.090836,-0.036902,-0.012017,-0.07226,0.028876,0.046275,-0.089085,0.09829,0.088825,-0.037553,0.018599,0.01522,-0.017247,-0.083892,0.103,0.061513,-0.10446,-0.096877,0.11887,0.019951,-0.028718,0.084717,0.03591,0.044871,0.099167,-0.009756,0.11911,-0.087804,-0.076063,0.02118,-0.015176,0.071331,-0.033991,0.019656,-0.025973,0.093843,-0.0081991,0.0019187,0.091574,0.12152,0.11961,-0.12222,-0.070633,-0.027144,-0.025805,0.072305,0.056456,-0.010281,0.0029612,0.026782,0.10776,0.064777,-0.063051,-0.064034,0.039531,-0.012643,-0.080193],"b2":[-0.12098,0.017905,-0.036503,-0.072729,0.023514,0.12172,0.10382,0.07127,-0.094275,0.071341,0.064652,0.041705,-0.031138,-0.0021766,-0.0678,-0.028157,-0.020577,-0.017707,-0.1244,0.044098,-0.10227,-0.093479,0.050796,-0.10232,0.11925,0.11969,-0.039723,-0.021543,-0.095632,0.0077278,0.022854,-0.068571,0.039198,-0.0048106,-0.036847,-0.00043246,-0.12117,-0.088054,0.016546,0.12072,-0.07409,0.080135,0.01144,-0.053779,0.00013696,0.059928,0.014871,0.11065,-0.023657,-0.083473,0.11295,-0.0357,0.079313,0.08245,0.022138,-0.10259,-0.12272,0.059342,0.030561,0.072733,-0.11018,-0.017222,0.108,0.065673],"W3":[0.10388,0.09814,-0.030671,-0.085123,-0.074536,0.042453,-0.049617,0.00049575,0.019948,0.077597,0.069713,0.071343,0.0050804,0.070569,-0.058519,-0.050031,-0.019792,-0.072591,0.1115,-0.019154,0.036341,-0.0038864,-0.0017096,-0.066624,-0.0091771,-0.11181,-0.059776,0.096195,-0.11724,0.02057,0.019914,-0.11964,0.024414,0.058039,0.090535,0.023397,0.09771,0.004705,0.047628,0.036901,-0.092167,-0.027439,-0.088026,0.097125,0.059632,-0.053013,-0.022874,0.033369,-0.10899,0.0035296,0.059627,0.015663,-0.011501,0.080363,0.054373,-0.11112,0.073564,-0.098591,0.070216,0.10526,0.01152,-0.042246,-0.064568,-0.055505],"b3":[-0.023042]}},{"id":"gen00","gen":0,"label":"Generation 0","stats":{"gamesWatched":2500,"loss":0.5715905210872492,"vsRandom":{"asX":{"w":247,"d":3,"l":0},"asO":{"w":237,"d":10,"l":3},"gamesPerSide":250},"losingBlunders":144,"missedWins":68,"positionsChecked":4520,"skills":{"takesWin":0.9994,"blocksThreat":0.8767,"winPositions":1638,"blockPositions":860}},"weights":{"W1":[-0.31334,0.23688,-0.20047,-0.10628,0.15422,-0.085843,-0.21388,0.31004,-0.17697,0.092356,-0.32628,0.025088,0.032852,-0.39587,0.061062,0.036702,-0.25536,0.10494,-0.34493,-0.047202,0.18659,0.22184,-0.06498,0.23263,-0.093825,0.028708,0.32971,-0.15897,-0.070755,-0.18066,-0.17517,0.08508,-0.18899,-0.13923,-0.045408,-0.6954,-0.17617,0.18386,0.1338,0.099154,0.14621,-0.080825,0.15956,-0.28354,-0.29925,-0.092012,0.18186,0.16248,0.043394,-0.031555,0.23528,0.21561,0.21017,0.091046,0.13986,-0.57397,0.16141,-0.30601,-0.058151,-0.11496,0.11514,0.066369,-0.24549,0.046709,0.15645,-0.024714,0.084579,0.025819,0.12255,0.28545,-0.13812,0.029498,0.10567,0.21528,0.22149,0.39958,0.004474,-0.0049107,0.037553,-0.112,-0.067545,0.14316,0.19795,-0.25642,0.027539,0.015464,-0.10882,-0.07202,0.12554,-0.10887,-0.059028,0.14013,0.14588,0.13932,-0.30844,-0.22089,0.095638,0.046908,-0.14157,0.016553,0.24808,0.24851,-0.16862,-0.059161,-0.1955,-0.077669,-0.12514,-0.1979,-0.014032,0.024887,-0.44473,0.20724,-0.58634,0.15982,-0.23457,-0.068252,0.041938,-0.020882,-0.022178,0.16342,-0.015257,0.080414,-0.11273,0.28498,-0.093878,-0.10286,-0.1783,-0.23212,-0.044901,-0.2208,-0.072483,0.081053,-0.19663,-0.12441,0.091693,0.073796,0.17356,-0.017554,0.16443,0.2168,0.18488,0.25327,0.28383,0.023705,-0.3159,0.083806,0.18222,-0.20283,0.038953,-0.21535,-0.43709,0.10306,0.068644,0.2725,0.025371,-0.50719,0.23508,-0.1613,0.021268,0.12731,-0.056901,-0.1259,-0.16608,-0.33638,-0.075027,0.045389,-0.56257,0.16112,-0.1548,-0.16582,0.17827,-0.10234,0.1953,0.056817,-0.2432,0.22755,0.022432,-0.045854,0.24099,-0.053281,-0.095782,-0.064254,0.11513,0.23064,0.30684,0.14295,-0.019805,-0.10157,-0.43412,0.25911,0.22422,0.2171,-0.089741,-0.041991,-0.14161,0.040365,0.029545,0.09712,-0.19735,-0.047168,0.031191,0.15995,-0.17994,-0.1662,-0.26277,0.14083,-0.20121,0.242,0.11183,0.026232,0.009897,0.028402,0.06425,0.095189,0.051013,0.13497,-0.39811,-0.17487,0.1181,-0.15918,-0.11424,0.16708,0.078418,-0.024553,-0.50134,0.17513,-0.18246,-0.080948,-0.17627,0.16682,0.023582,0.1354,0.004157,0.28497,0.063737,-0.61812,0.11378,-0.21201,0.039274,0.11065,0.32591,0.27423,0.070799,0.09729,0.25431,0.018423,0.26224,-0.079846,0.056656,-0.28314,-0.16995,0.089876,0.10514,-0.096204,-0.30187,-0.0064588,-0.1411,0.089272,-0.12235,-0.12816,-0.23395,0.2188,0.16016,0.28389,0.10334,-0.11439,0.026971,0.12683,0.20609,0.19131,-0.30373,-0.094206,-0.21372,0.011263,0.005185,-0.17966,0.20444,-0.18295,-0.060385,0.15007,0.03935,-0.14659,-0.013015,0.16626,0.071915,0.26533,0.010489,0.15589,0.092867,-0.14749,-0.097802,0.10124,-0.38626,0.042364,0.035638,-0.22833,0.20855,-0.22197,0.088528,-0.13309,-0.007249,0.18087,-0.16546,-0.0096364,0.053633,-0.1354,-0.1011,0.16385,0.23049,0.15603,-0.2452,0.20752,0.26217,0.15865,-0.11701,0.18345,0.010991,-0.057963,-0.013655,0.14809,-0.051379,-0.028933,-0.072703,0.27728,0.1989,0.18301,0.16296,-0.14166,0.072764,-0.14424,-0.28139,-0.21296,0.16898,0.12884,-0.059458,0.016553,0.29281,0.2649,0.26059,0.33063,0.019187,-0.0078008,0.076319,0.12619,-0.19657,0.094996,0.14478,0.020194,-0.22806,0.12949,-0.31488,0.2404,-0.075359,0.069981,0.078122,0.066906,-0.022824,0.16111,-0.16863,0.20234,-0.13593,-0.26305,-0.44332,0.18808,0.10139,0.44437,-0.0035089,-0.27141,-0.20043,-0.040385,0.014764,0.1168,-0.20173,-0.19061,-0.42671,0.019569,0.16918,0.19373,0.28652,0.21589,0.28374,0.051453,0.18085,0.27018,0.11947,0.28352,0.23815,0.069012,0.0066084,0.024603,-0.037072,-0.036612,-0.095552,-0.16497,-0.15292,0.13109,0.27098,0.058764,-0.084498,0.2585,0.14518,0.048656,-0.1618,0.31247,0.31457,-0.2405,0.23453,0.15235,-0.097441,0.20438,-0.079748,-0.01028,0.072062,-0.020119,0.012868,-0.0017363,0.04201,0.0044515,0.031373,0.24283,-0.20736,-0.3559,-0.47681,0.024664,0.045668,-0.2527,-0.095237,-0.098025,-0.11688,0.18257,0.016983,0.21105,0.36219,-0.18567,-0.24778,0.082884,-0.11676,-0.031562,0.2498,-0.37959,-0.022335,-0.53141,0.099491,0.13209,-0.26831,0.23076,-0.15232,-0.23233,0.10786,-0.15833,0.28296,0.19226,0.24122,0.25249,-0.026209,0.31556,0.065379,0.093183,-0.12802,-0.19873,-0.099503,-0.15733,-0.039361,-0.27474,-0.017692,0.092664,0.075707,-0.10406,-0.58033,-0.077653,0.063858,0.31669,0.23323,0.15586,0.10418,-0.12026,-0.33649,0.22735,-0.063228,0.00099111,-0.1412,-0.57156,-0.23884,0.049003,0.0059824,0.23428,0.2719,0.13393,0.22543,-0.17489,-0.11221,-0.030881,0.029953,-0.31851,0.13889,0.076999,-0.16778,-0.053127,0.15308,0.30662,-0.1777,0.18698,0.12363,0.17223,0.2729,-0.45488,0.021734,0.20406,-0.16859,0.0014474,0.14286,0.068209,-0.15566,-0.080486,0.070021,0.29247,-0.11839,0.072336,0.09513,-0.088487,0.15085,0.046644,-0.40803,-0.4126,-0.5783,0.050854,0.2307,0.17671,0.070794,0.066595,0.21877,0.28086,0.1645,0.12787,-0.18767,-0.21288,-0.17205,-0.18063,-0.17966,-0.19654,-0.10477,0.14004,0.048529,-0.22169,0.14929,0.27569,-0.15562,0.1816,0.048752,0.22995,-0.20309,-0.045076,0.17643,-0.15116,-0.12064,0.11075,-0.19174,-0.12633,0.1236,0.10272,-0.30886,-0.17447,-0.19132,0.20021,-0.25685,0.25599,-0.095821,0.089329,0.16322,0.23094,0.25518,0.17052,0.10915,0.03751,0.048333,0.27374,-0.11358,-0.37293,0.1574,0.31162,0.051694,-0.32079,-0.4098,0.09789,-0.076328,-0.071651,0.036258,0.07544,0.1307,0.20046,0.06786,-0.060465,-0.044148,0.17411,-0.0043433,-0.021189,-0.188,0.25263,0.30572,0.26193,-0.23831,-0.15716,-0.19494,0.17337,0.13563,-0.002315,-0.099974,-0.28199,-0.24196,-0.094296,-0.085806,-0.14401,0.31718,-0.047536,0.0049096,0.30234,0.2036,0.12885,0.27121,0.088269,0.071375,0.12232,0.033828,-0.15633,-0.041021,-0.18696,0.16718,-0.11398,-0.18207,-0.093541,0.33626,0.12249,0.13642,0.21725,0.23227,0.01679,-0.17769,-0.3654,-0.15034,-0.045967,-0.094618,-0.061946,-0.051316,-0.082313,-0.10909,0.27974,0.057175,0.24618,-0.10434,-0.15865,0.27943,-0.12477,0.37361,-0.060438,0.09361,-0.18053,-0.1285,0.13451,-0.0088789,-0.071705,-0.0048358,-0.086753,0.10491,-0.29477,0.048212,0.19563,-0.14564,0.20575,-0.1998,0.095082,-0.31661,-0.023501,0.028565,0.15147,0.17895,0.33181,0.11905,0.13299,0.24374,0.060413,0.24729,-0.0017559,0.052309,0.007678,0.040256,0.10919,0.003143,-0.20193,0.19517,0.027657,0.18444,-0.1021,-0.012711,0.13143,0.059895,-0.018159,0.22872,-0.14795,0.15668,0.010608,-0.043537,0.17473,-0.25094,-0.021404,-0.17116,-0.076385,0.032003,0.077341,-0.12784,0.21237,-0.20824,-0.094916,-0.017203,-0.11695,0.24598,-0.088423,0.11572,0.17403,0.13547,0.34803,0.33582,-0.1571,0.12672,-0.17734,-0.83831,-0.043228,0.053245,-0.13779,0.20611,-0.24451,-0.068815,0.14536,-0.029596,-0.038095,-0.035967,0.24844,-0.088001,-0.30879,0.13332,-0.1367,-0.17731,0.10119,0.19256,-0.1087,0.14283,0.25529,0.26447,-0.13389,-0.068965,-0.11805,-0.27606,-0.016858,0.14905,0.049508,-0.076465,-0.031891,-0.10209,0.21748,-0.45232,-0.18084,0.12145,0.090769,-0.15748,0.19763,-0.067031,-0.16597,0.048027,0.29482,-0.19332,-0.044314,0.15222,-0.015946,0.026297,0.32186,0.26551,0.1032,0.18225,-0.34699,0.25743,-0.60823,-0.12922,0.1004,-0.055601,-0.050409,-0.12714,-0.0064425,-0.08439,-0.17371,-0.024183,0.081741,0.16049,0.10302,0.42969,0.14478,-0.075406,-0.19779,-0.17155,-0.11978,0.094112,0.053975,0.23735,-0.18276,0.044714,-0.10021,0.076859,0.22822,0.23566,-0.26235,-0.11402,-0.039833,-0.019276,-0.06228,-0.030888,-0.23061,0.37112,0.34012,-0.10521,0.2427,0.13467,0.16673,0.21093,0.068724,0.12421,-0.043447,-0.13539,0.036465,-0.073233,-0.037195,0.11597,0.04145,0.18468,-0.20261,-0.085968,-0.11732,-0.3005,0.092451,-0.068549,-0.040893,-0.041103,0.034831,0.089691,0.26023,0.057146,0.26649,0.074567,0.091424,0.088894,0.31154,0.13913,-0.10941,0.22456,0.20767,-0.16741,-0.26693,0.032088,-0.04041,0.0080724,-0.27277,0.094289,-0.26077,0.088986,0.23544,0.31998,0.09521,0.18931,-0.1828,-0.074441,-0.075984,-0.0026767,0.049596,-0.053019,-0.030047,-0.43453,-0.018896,0.034384,0.097639,0.21245,0.27321,0.020863,0.032027,-0.071942,-0.19024,-0.28586,0.15279,0.050128,0.16849,0.17196,-0.21042,0.02655,0.13793,-0.099732,0.25674,0.13514,0.21912,0.056843,0.1346,-0.15286,0.047577,0.17254,-0.016141,0.13838,0.20265,0.17594,0.19044,0.046528,-0.022567,-0.27082,0.001254,-0.037006,-0.13095,0.057713,0.12399,-0.1809,0.024142,0.048947,-0.0037684,-0.45163,-0.18114,0.12014,-0.15984,0.38682,-0.039468,-0.53869,0.26235,-0.055594,-0.34868,0.21148,0.1141,0.40684,-0.217,0.14685,0.04049,-0.41464,0.17888,0.28809,-0.11438,0.28341,0.058341,0.32416,-0.10318,-0.066492,-0.16297,-0.24762,0.079953,-0.41595,-0.15856,-0.22559,-0.26875,0.020573,0.049737,0.062876,-0.010965,-0.10763,-0.027998,0.10295,0.16221,0.075993,-0.27762,0.15693,0.10233,-0.21264,-0.028736,0.36522,-0.17188,-0.17927,0.070466,0.2185,-0.09029,-0.020799,0.055637,0.039553,-0.02214,0.28785,0.26337,-0.12845,0.03248,0.25266,0.083851,-0.14889,0.27284,-0.029343,-0.33364,-0.10189,-0.074279,0.00094628,-0.2375,0.094901,-0.069193,-0.30856,0.13018,-0.0071776,0.24202,0.16419,-0.069572,0.19325,0.11495,0.013104,0.051251,0.14711,-0.039306,-0.035067,-0.22156,-0.090045,-0.24269,-0.16036,0.070365,-0.2142,-0.1685,-0.082258,0.086266,0.077248,0.030046,0.20419,-0.0082949,-0.026765,0.18984,0.36888,0.033496,-0.1358,-0.021848,0.076399,-0.1938,-0.094244,0.063821,-0.097023,-0.22603,-0.29663,0.25501,-0.14517,-0.12289,0.12507,0.079859,-0.29612,0.033228,0.047645,0.042098,-0.33151,-0.002245,-0.012168,0.063219,-0.27625,0.33997,-0.01933,-0.1656,0.090645,0.073765,0.18353,0.11823,-0.50002,0.19762,-0.1838,-0.1262,0.078166,0.25065,-0.031858,-0.046324,0.21043,0.18594,0.22007,0.059313,-0.092369,0.24328,0.21437,0.23768,-0.027322,-0.29523,-0.0064317,-0.27144,0.34212,0.32564,0.06813,-0.040781,-0.040486,-0.055352,0.27242,-0.11329,-0.0038005,-0.1186,-0.0065085,-0.064628,0.18795,-0.12705,0.13799,0.12344,0.071861,0.28364,0.23612,-0.029539,0.13104,-0.16715,-0.05167,0.017339,-0.10382,0.11494,-0.10151,-0.21214,0.018202,-0.16671,0.089693,-0.19027,-0.11074,0.024799,0.23487,0.18236,-0.48546,0.1812,-0.30139,-0.18258,0.047926,0.022947,-0.20112,-0.43983,-0.38431,0.028217,-0.26967,0.0024099,-0.011578,-0.16874,-0.20039,-0.10944,-0.076194,-0.21418,-0.15738,-0.0054043,-0.22226,-0.033129,-0.15219,-0.1634,0.049446,-0.18142,-0.17862,0.10276,0.044068,0.16821,-0.16691,-0.090992,0.27473,-0.043447,0.32347,-0.14834,0.21726,0.008862,-0.21456,-0.060349,0.054611,-0.4874,0.04666,-0.2993,0.055879,-0.31128,0.070536,-0.0080484],"b1":[-0.27028,0.060463,0.2092,-0.19717,-0.13697,0.23037,-0.095992,0.12703,-0.17929,-0.089598,-0.037093,0.25139,0.069874,-0.20131,0.12535,0.072429,-0.10491,-0.15044,-0.078377,0.18152,-0.24745,-0.14472,-0.11146,-0.040623,0.07136,0.025011,-0.091643,-0.10268,-0.053111,-0.15053,0.24456,-0.15358,-0.055942,-0.26577,-0.023255,0.19643,0.26953,-0.25466,-0.14618,0.12616,0.068889,0.18035,-0.038795,-0.16617,0.1949,-0.056769,0.18323,-0.12178,0.15896,0.19549,0.21105,-0.25287,-0.14749,-0.14495,-0.063942,0.26853,0.052164,-0.17224,-0.12096,-0.1407,0.12749,-0.14014,-0.26548,-0.18591],"W2":[0.48169,0.25493,-0.11356,-0.045256,0.080645,-0.14747,-0.22711,0.0079292,-0.15856,0.0741,-0.051345,0.087898,0.07961,-0.13406,-0.041777,-0.06987,-0.11841,8.1105e-05,0.10487,-0.1108,0.33377,0.13525,0.19081,-0.27482,-0.31292,0.046848,0.25752,-0.1127,-0.28703,-0.20373,-0.12447,-0.066983,0.073203,0.24967,0.12371,0.085339,0.026575,-0.23934,0.085414,0.0048937,-0.069869,-0.093736,0.0039181,0.12991,-0.10981,0.14804,0.10356,-0.1375,-0.11483,0.072578,0.062929,0.31135,0.26334,0.17328,0.046828,0.098159,-0.0062561,-0.04598,-0.010625,0.10999,0.085352,0.13455,0.092376,0.33003,0.099801,0.091907,0.0064323,-0.076635,0.08057,-0.057001,-0.15154,0.022619,-0.1813,-0.17621,0.047663,0.013608,-0.068582,-0.026455,-0.19957,-0.15918,-0.028931,0.058258,0.098348,-0.13369,0.17203,0.074825,0.12271,-0.014661,0.18003,0.10419,0.051025,-0.11462,-0.097835,-0.24172,0.11292,-0.11819,-0.020506,0.032193,0.12099,0.14021,-0.17548,-0.16458,0.089329,-0.029753,-0.072013,0.071533,-0.041917,-0.043935,-0.047244,0.093343,-0.091289,-0.056733,-0.045894,-0.060411,-0.0048837,-0.070254,0.25787,0.056816,-0.043895,0.017949,0.10969,-0.052138,0.026703,0.016767,0.019083,0.13892,0.00835,0.24709,-0.32492,-0.087351,0.14896,-0.21785,0.066414,0.083232,0.12282,0.26362,0.32435,0.26712,0.059319,0.17829,-0.057397,-0.12121,0.15684,0.11061,0.1979,-0.020386,-0.07495,0.069973,-0.14439,-0.033984,0.039691,0.041184,-0.16538,0.032724,-0.2091,0.098788,-0.03125,0.27296,-0.0063569,0.024836,0.00076769,-0.11269,-0.085129,-0.01198,0.16561,0.061328,-0.062233,-0.038048,0.062769,0.063248,-0.028059,-0.088418,-0.25384,0.11143,0.030868,0.19024,-0.016535,0.14124,0.031484,-0.10854,-0.28115,-0.0425,-0.098629,-0.1093,-0.0082011,-0.043336,-0.082274,-0.1454,-0.08417,-0.16599,0.081487,-0.23195,-0.096723,-0.12268,0.11506,0.12354,0.14018,0.082226,0.3039,0.06617,-0.06585,0.038023,0.081083,0.066908,0.032965,-0.018408,0.067963,0.047556,0.013107,-0.013475,0.11238,0.14518,-0.024654,-0.1682,-0.071563,0.10928,0.026228,-0.091109,0.11787,-0.084679,0.045175,0.046524,-0.2826,0.23063,-0.05514,-0.0798,0.040917,-0.13285,0.098577,0.12202,-0.021497,0.09809,0.055271,-0.076212,0.1879,-0.066198,0.088538,-0.23231,0.061277,-0.15442,0.048524,0.0013742,-0.040778,0.17542,-0.27462,-0.047157,0.065445,-0.33889,-0.19033,-0.13493,0.16912,0.16183,0.11863,-0.1227,0.016642,-0.041179,-0.10792,-0.039215,-0.04383,0.23806,-0.11412,-0.10074,0.22469,0.17325,0.27684,0.16945,0.065068,-0.041784,0.24975,0.30615,0.10312,-0.047439,0.17531,0.084914,0.15402,0.027708,-0.043971,-0.1263,-0.13699,0.14117,-0.10516,-0.14767,0.098223,0.029964,0.1664,0.031137,0.070892,0.058056,-0.048777,-0.099477,-0.11692,-0.10594,0.012488,0.21472,0.03933,0.075023,-0.051518,-0.20265,-0.17293,-0.30345,-0.038315,-0.0020545,0.091834,-0.04069,0.12001,0.049716,-0.081823,-0.1031,-0.018773,0.24384,-0.20145,-0.11167,-0.04195,0.099521,0.21285,0.0016101,0.049055,-0.030243,0.016131,-0.14388,-0.31474,0.23678,0.071145,-0.055901,0.11082,-0.16612,0.16258,0.1292,-0.13191,0.03082,-0.18834,-0.20408,-0.082006,0.10479,-0.091967,-0.044108,0.10937,0.042118,0.041019,-0.038848,-0.13866,-0.092731,-0.075795,-0.12967,0.059558,0.095977,-0.090699,0.026593,-0.15472,-0.10202,-0.013213,-0.2442,-0.18752,0.0074126,-0.088298,-0.021161,0.084352,-0.24572,-0.013079,-0.12588,0.024199,-0.029441,-0.0052167,0.090604,0.050415,0.14164,-0.07278,0.12429,0.043829,-0.086987,-0.05545,0.17606,0.16673,0.016471,-0.023398,0.12817,-0.056429,-0.062869,0.22627,-0.0030687,-0.090654,0.093465,0.044185,0.26452,-0.27081,0.0040365,0.1306,0.097404,0.010814,-0.011576,0.17046,0.13949,0.080881,0.15004,0.10114,0.10025,-0.029226,0.063638,0.022538,0.089263,0.17927,-0.11185,-0.03475,0.075071,-0.13767,-0.13817,-0.069337,0.20469,0.026343,0.020459,0.0023374,0.1013,0.12911,0.30701,-0.047572,0.10587,0.14736,-0.095716,-0.11417,-0.13929,0.14989,0.1967,0.11029,0.091384,0.17805,-0.1108,-0.020778,-0.17171,0.071829,-0.015779,0.060968,0.087068,-0.000368,-0.043039,0.058597,0.015257,-0.24606,-0.016887,0.077078,0.01549,-0.02125,-0.0028623,0.10456,0.050229,-0.17875,-0.17473,0.049549,-0.050102,0.2267,0.26238,-0.069478,0.017994,0.061831,0.037455,-0.031466,-0.030033,-0.25051,0.027352,-0.10496,0.0090988,0.1596,-0.097063,-0.25926,-0.12179,0.014017,0.1207,-0.05116,-0.084378,0.10764,-0.014184,-0.0025708,-0.028927,-0.27128,0.12673,0.26242,-0.052939,-0.19549,-0.286,0.096253,0.0352,0.030458,0.24832,-0.06206,0.019479,-0.0050054,-0.14072,0.056613,-0.079519,-0.080183,-0.03658,0.10337,-0.016172,-0.049144,0.11365,0.06479,0.03914,-0.15328,0.011303,0.15451,0.13724,0.23916,0.098942,0.22918,-0.0028725,0.2114,-0.0049771,-0.098495,0.056744,0.026999,0.20655,0.12349,0.10724,0.11238,0.18439,0.070746,0.28457,0.13808,0.052261,0.32504,-0.0078954,-0.0017902,0.063223,0.12659,0.043318,-0.12753,0.14804,-0.19001,-0.15701,-0.053703,0.024744,-0.0061193,-0.22985,-0.22509,0.05811,-0.20207,0.10506,-0.046267,-0.049059,-0.034372,0.083978,-0.1091,-0.29183,-0.064489,-0.39649,-0.088854,0.22649,-0.0077916,-0.046624,0.16239,-0.23267,0.14326,0.014078,-0.12349,-0.12321,-0.075883,0.057335,0.0031933,0.13686,-0.092207,0.19438,-0.29723,-0.092217,0.081641,0.24129,0.24888,0.024382,0.079668,-0.11721,-0.036842,-0.32062,0.036321,-0.065433,-0.16241,0.066431,0.0084921,0.36789,0.37766,0.13119,0.0042409,-0.13136,0.088847,-0.0093955,-0.15513,-0.10198,-0.14762,-0.1408,-0.17252,-0.07354,-0.18598,0.077094,-0.18281,-0.15812,-0.16629,0.1673,-0.088914,0.0072223,0.19865,0.1628,0.078485,-0.090941,0.1481,0.074759,0.12614,-0.15269,-0.10397,-0.25844,0.013929,-0.066234,-0.20141,0.13528,0.11472,0.15161,-0.20088,-0.011796,-0.097539,-0.14595,-0.16439,0.0049409,-0.012895,0.022244,0.16005,0.15225,-0.093337,0.11638,-0.10721,-0.084755,-0.016273,0.010516,0.13581,-0.080096,0.091817,0.090898,0.18865,-0.15166,-0.0070011,-0.046429,0.11461,0.15535,0.085088,0.17493,-0.02794,0.1632,-0.032665,0.0044953,-0.09585,0.14931,0.039168,0.058991,-0.3086,-0.13773,-0.0076761,-0.076578,0.11034,0.14167,0.069093,-0.060777,-0.073198,0.18584,0.0051793,-0.16314,-0.15316,-0.078522,0.046892,-0.032138,0.17897,-0.13726,-0.065801,-0.16077,-0.024865,-0.19969,0.062976,-0.31844,-0.22178,-0.20042,0.079408,0.23583,0.074127,0.12517,-0.10437,-0.24401,-0.12739,0.050327,-0.00026462,0.06813,0.053101,0.11375,-0.26065,0.091434,-0.043458,-0.042904,-0.016592,0.055633,-0.26404,0.085002,-0.10422,-0.03788,0.16898,-0.17901,-0.028853,0.11407,0.05504,0.010007,0.041642,0.23359,-0.28943,-0.058391,0.043329,0.22953,0.13819,0.16838,-0.014235,-0.13433,0.055446,0.03291,-0.066574,-0.1727,0.079581,0.13886,-0.007165,0.020427,-0.020464,0.064916,-0.28569,-0.21704,-0.12865,0.070857,-0.30622,-0.023577,0.036672,0.17599,0.041712,0.16758,0.053789,-0.099145,0.12115,-0.44544,0.038823,-0.090584,0.10514,-0.019058,0.2217,-0.21051,0.11654,0.040563,0.13021,0.04941,-0.30358,0.066452,-0.062349,0.026692,-0.22938,-0.091702,-0.11634,-0.055596,-0.094915,0.019635,0.071958,-0.22434,-0.07397,0.15376,0.089399,-0.10251,-0.18404,0.042457,-0.04416,0.057915,0.022676,0.28986,0.48033,0.12087,0.0057899,-0.37015,0.063774,0.1164,-0.38755,-0.19447,0.02881,-0.21292,-0.32274,0.092399,-0.12319,0.054761,-0.18408,-0.020153,-0.086801,0.17442,-0.0025026,0.0079324,0.13235,0.094618,0.05209,-0.15982,-0.088202,0.25584,-0.075865,0.058606,-0.053456,-0.27823,0.076023,0.075943,0.041836,-0.0090306,-0.01168,-0.081615,-0.31183,-0.015903,-0.041986,-0.061292,-0.18689,0.033528,0.10963,0.10588,-3.2248e-05,0.15437,-0.068347,0.095738,-0.18689,0.034668,-0.039636,0.040057,0.26446,-0.085733,0.16192,-0.017407,0.067002,-0.1694,0.15384,0.055827,0.15141,0.21709,0.072045,-0.097814,-0.19704,0.072311,-0.13004,0.0077052,-0.10492,0.0031184,-0.034389,0.082011,0.15698,0.16203,-0.29946,0.11484,0.036016,0.20748,-0.070188,0.20962,0.16903,0.07582,-0.076051,-0.086507,-0.17973,-0.16581,0.051359,0.068065,-0.24231,0.0005977,0.083872,-0.10984,-0.20587,0.036406,0.041887,-0.20903,-0.073336,-0.10551,-0.08346,0.16793,-0.070671,0.20157,-0.085553,-0.016711,-0.13779,-0.0049752,-0.14869,-0.15315,0.076141,-0.002601,-0.032671,0.011664,-0.03609,0.13001,-0.17129,0.25814,-0.2149,-0.048848,-0.045798,-0.053813,0.17873,0.17768,-0.029775,0.019151,0.044198,-0.012187,0.014805,-0.1817,-0.0006019,0.086393,0.13463,0.061128,-0.012292,-0.034662,0.20561,0.042819,-0.18646,0.22045,0.061261,0.071691,-0.12101,0.11274,0.23695,0.14436,0.19444,-0.28542,0.0059078,0.12625,-0.16664,0.011803,-0.052875,0.087178,0.045089,-0.1093,0.15246,0.091846,-0.024479,0.22012,-0.3776,0.013703,0.052341,-0.29225,0.091753,-0.015002,0.030363,0.10347,0.099164,0.17691,0.13296,0.059673,0.22737,0.0093842,0.076491,-0.3645,0.0011881,-0.026845,0.12181,0.057908,-0.018707,0.28598,-0.29403,-0.028486,0.18838,-0.23396,-0.1881,-0.048728,-0.030304,0.10179,0.13778,-0.18349,-0.024068,-0.073916,0.19526,0.12671,-0.021969,0.16617,0.0068021,-0.017383,0.087198,-0.029622,-0.21299,0.3202,0.10982,0.042216,0.14745,0.092586,-0.063109,0.092815,0.087906,0.04772,0.085857,0.050775,0.034677,-0.00435,-0.056727,-0.21516,-0.036332,-0.16949,0.25971,0.050534,-0.17874,0.056215,-0.24969,0.11104,-0.14928,0.0024985,0.068442,-0.36103,0.14797,0.027689,0.12451,0.16501,0.26362,-0.040459,0.10345,-0.212,0.20812,-0.31958,0.030087,-0.27505,0.12481,-0.063273,0.097219,0.11693,0.052569,-0.014964,0.11175,-0.16179,-0.078778,-0.1853,0.032798,0.33975,0.23065,0.029094,0.16483,-0.15549,-0.19562,-0.36491,-0.077193,-0.034102,0.038393,-0.028173,0.055353,0.11886,0.15576,0.026884,0.074184,0.15192,0.063284,0.16827,0.078617,-0.083231,0.20094,-0.13737,-0.031929,0.11882,-0.24236,-0.093526,0.14982,0.12862,-0.062933,-0.11707,-0.14212,0.1352,0.06971,0.16581,0.045653,0.17101,0.078215,-0.15201,-0.057068,0.070657,0.015958,0.11625,0.00096043,0.093834,-0.056014,-0.04369,-0.0059187,0.0057495,-0.10285,-0.017065,-0.059191,0.15801,-0.16065,-0.0067278,-0.022146,-0.028181,-0.14106,-0.011397,-0.078649,-0.16896,-0.075926,0.092231,0.12365,-0.2809,-0.24924,-0.27943,-0.04849,0.06984,-0.19444,-0.40839,0.083476,0.10962,0.036818,0.0029785,0.095624,0.16442,0.10977,0.16523,0.12101,-0.10346,0.086077,0.17788,0.012147,-0.01343,0.038852,0.16285,0.1713,-0.0036773,-0.12229,-0.026119,-0.030512,0.20096,-0.01987,-0.022814,-0.0088776,-0.048434,-0.052241,-0.20936,-0.066208,0.16026,-0.097818,-0.019863,-0.12497,-0.12276,0.040807,0.15891,0.019397,0.23154,-0.037055,0.012036,0.086464,-0.18852,0.083434,-0.14778,0.065697,0.0075628,0.10496,-0.1127,-0.060472,0.016941,-0.18483,0.027926,0.010975,-0.064094,-0.18007,0.12942,0.17004,0.045873,-0.23871,-0.18396,-0.047768,-0.22149,0.11042,-0.033046,-0.12735,-0.056822,0.088146,-0.054113,-0.05481,0.035545,0.015475,-0.11021,0.077462,0.043763,0.082311,0.028105,-0.062905,-0.061563,0.060578,-0.04499,0.018772,-0.12701,-0.06179,0.020044,-0.026902,-0.060094,-0.10903,0.052818,-0.045897,-0.12282,0.093996,0.060828,-0.080663,-0.091229,0.12079,0.00052191,-0.10183,0.045322,-0.052665,-0.012172,-0.085637,-0.11165,-0.083015,-0.040216,-0.090493,0.11732,-0.019387,-0.07389,0.043512,-0.11082,-0.069731,0.020298,-0.13224,0.04156,0.0047448,-0.10423,-0.12405,0.013087,0.032507,-0.024988,-0.1164,-0.092487,-0.013246,0.0045476,0.031997,0.0013464,0.078587,0.045708,0.20528,0.18842,0.14587,-0.085386,0.053863,-0.013701,-0.15535,0.20874,0.072519,-0.084172,-0.20218,0.11769,0.0348,0.11073,0.10666,-0.21489,0.029483,0.17114,-0.25153,-0.13842,0.033034,0.034687,-0.19485,-0.049677,0.1229,0.092477,0.037049,0.013625,-0.24252,-0.011256,0.073293,-0.21626,0.088947,0.080919,0.050845,0.1166,0.058578,0.016379,-0.032944,0.010917,0.23341,0.11631,0.062994,-0.47272,-0.1015,0.033191,0.027714,-0.001048,-0.094084,0.33395,-0.30623,-0.23969,0.29917,-0.24912,-0.41509,-0.081407,-0.12567,0.18038,0.034098,-0.17838,-0.095581,-0.1622,-0.085561,0.1989,-0.086003,-0.20757,0.092863,0.21615,-0.12659,-0.035579,-0.18883,-0.20728,-0.02916,0.11967,-0.34615,0.18882,-0.065529,0.044872,0.02009,0.18083,-0.12456,-0.10408,-0.061252,-0.062781,0.15521,-0.15511,0.23686,0.1776,-0.35344,-0.092337,0.1793,-0.24988,0.082335,-0.10525,0.13681,-0.12401,0.079537,0.1796,-0.23954,0.25876,-0.05342,-0.2066,-0.23505,0.07171,-0.17482,-0.41961,-0.014399,-0.13176,-0.25598,0.00044563,-0.20365,-0.043026,0.033076,-0.21116,-0.098279,-0.2188,-0.019405,0.012385,0.014787,0.10888,0.21317,0.044485,0.011248,-0.069804,0.0011652,-0.15794,-0.20182,0.3542,0.1016,-0.21407,0.06601,-0.14034,-0.25033,0.09421,-0.00034386,0.079177,-0.35204,-0.091595,-0.04167,0.18042,-0.029445,-0.03178,-0.34999,0.12425,0.13613,-0.12497,-0.29451,0.20045,0.029593,-0.21009,-0.27018,0.10042,-0.026228,0.25021,-0.36879,-0.089453,-0.019253,0.050031,-0.27057,-0.29436,-0.086774,0.12669,-0.042173,-0.29985,0.13153,-0.09285,0.061725,-0.24305,-0.10925,0.13834,0.0094074,0.1892,0.11975,-0.060508,-0.040504,-0.14519,-0.14986,0.15808,0.11174,-0.018565,-0.095003,-0.21088,-0.11208,-0.31947,0.20011,-0.053449,-0.038775,-0.20024,0.066076,0.65924,0.25729,-0.099312,0.036852,-0.22063,-0.02143,-0.086944,-0.22638,-0.14873,-0.36353,-0.16977,-0.10713,-0.025114,-0.12793,0.073106,-0.10387,-0.18939,-0.16648,0.11519,-0.015737,-0.1033,0.24601,0.21006,0.086527,-0.16181,0.12681,0.078554,0.12798,0.011671,0.078095,-0.33426,0.034793,-0.010152,-0.16111,0.17889,0.13703,0.1384,-0.20826,0.0053242,0.12149,-0.014685,-0.088684,0.10307,-0.047617,0.081671,0.077729,0.1158,-0.092147,0.00067219,-0.026288,-0.01496,-0.11145,-0.026691,0.31193,0.031515,0.0029696,0.1459,-0.05684,-0.15831,-0.095998,0.12679,-0.032805,0.19227,-0.11171,0.2277,0.00048817,-0.17974,0.22942,-0.041908,-0.023704,-0.019409,0.012005,0.066687,0.15888,0.083988,0.098398,0.032193,-0.14412,0.014294,0.15033,0.016148,0.13283,-0.25909,0.012042,0.16754,-0.19355,0.086981,-0.010444,0.052455,-0.26798,0.013178,-0.24628,-0.044012,-0.048152,0.19723,-0.28621,0.012681,-0.025184,-0.14343,0.052904,0.1538,0.099757,-0.048164,0.038673,-0.011809,-0.1095,0.16507,0.19854,-0.10978,0.085907,-0.073106,-0.067677,-0.079052,-0.049591,-0.061522,0.11867,0.41314,-0.32255,-0.37625,0.093266,-0.29455,-0.12528,-0.22427,-0.084701,0.074334,-0.0061854,-0.196,0.04242,-0.12117,-0.24767,-0.15527,-0.042183,0.27172,-0.092834,0.093745,0.045262,0.12908,0.2228,-0.014176,0.16031,0.0021207,0.049208,0.047938,0.18281,0.18567,0.17351,-0.1292,-0.03457,0.094249,-0.25009,0.023027,-0.039447,0.1996,0.079845,0.0062952,-0.099535,0.082262,-0.023425,0.37667,-0.048183,0.14007,0.071507,-0.15386,-0.086388,0.020992,0.0058599,0.11943,0.081433,0.074603,-0.044473,-0.10164,-0.019945,0.056233,-0.10894,0.084353,0.17678,-0.027452,-0.0067203,-0.059265,0.0105,-0.077555,-0.16441,0.08787,-0.0027402,-0.13021,-0.029371,0.083959,0.019478,0.044631,-0.1281,-0.065609,-0.016514,-0.11324,-0.34261,-0.21119,0.091349,0.1087,-0.0083,0.025982,0.086831,0.16239,0.27571,0.024562,0.047323,0.053556,-0.00025766,-0.019124,0.060084,0.053704,0.10093,-0.0004347,0.15289,0.05932,-0.12375,-0.02419,-0.026615,0.070852,-0.041506,-0.16522,-0.14466,0.03267,-0.024278,0.041791,-0.16109,0.1406,0.077545,-0.20482,-0.063448,0.027041,0.011683,0.11031,0.018444,0.1145,0.043153,-0.090284,0.075597,0.049586,-0.052411,0.038882,0.035423,0.035309,0.076243,-0.0076714,0.078437,-0.05799,-0.20082,-0.11116,-0.119,-0.18773,-0.17925,0.058476,0.016788,-0.097383,-0.11644,-0.19761,0.053627,-0.21585,-0.26088,-0.098245,0.093716,0.122,0.016659,0.11109,0.062267,0.19267,0.26908,-0.044928,0.070706,0.13064,-0.02646,0.04709,0.08873,0.1434,0.047763,-0.20333,0.11531,0.075307,-0.08008,-0.045126,0.015927,0.14319,-0.04514,-0.10709,-0.10302,-0.048774,0.017977,0.20321,0.0072708,-0.023058,0.13306,-0.28756,-0.022498,0.017252,-0.043622,0.18687,-0.10151,0.02944,0.088252,-0.06896,0.11481,-0.11431,-0.09522,-0.090057,0.031666,0.11072,0.1348,0.037476,-0.012144,-0.14592,-0.077321,-0.043813,-0.13808,-0.17771,0.040535,0.083053,0.09753,-0.014913,-0.18533,-0.079463,0.013837,-0.1361,0.36611,0.079365,0.070413,-0.13302,-0.017062,-0.044682,-0.14394,-0.076433,-0.14081,-0.16315,0.048901,-0.0023888,-0.076473,-0.066375,-0.11143,-0.18695,0.013205,0.087318,0.014217,-0.18365,0.19349,0.16943,0.15137,-0.18507,0.1377,0.091311,0.14509,0.022761,-0.1767,-0.23309,-0.026363,-0.1228,0.0011256,0.13833,0.059153,0.10811,-0.010382,0.072952,-0.037378,-0.13493,-0.21365,0.078005,-0.063084,-0.0050693,0.1017,0.18017,-0.040805,-0.017897,-0.096587,-0.089214,0.086381,-0.052964,0.23467,-0.019331,-0.047456,-0.043615,0.066024,-0.047175,-0.060628,0.048142,0.13248,-0.05556,-0.027547,0.20962,-0.15056,-0.17402,0.13495,0.14058,-0.064626,0.048399,-0.064462,0.20689,0.26882,0.060315,0.11605,0.17591,0.028415,0.052752,0.13249,0.025537,0.088577,-0.18947,0.12443,-0.031995,-0.1494,-0.096325,0.052841,0.062929,0.008974,-0.13164,-0.20754,0.048091,-0.013347,0.21208,0.0095126,0.011336,0.060894,-0.17558,-0.029502,-0.12052,0.053759,0.060173,0.081729,0.088763,-0.046869,-0.079243,0.0020054,-0.014461,-0.058917,0.054937,0.1835,0.015819,0.085679,0.10093,-0.058422,-0.023495,-0.037739,-0.10673,-0.051264,-0.15071,-0.15079,0.075669,0.12122,-0.10303,-0.038738,-0.088639,0.055935,-0.085694,0.075309,0.088355,-0.13028,-0.075227,0.034347,-0.091879,0.012162,-0.068505,0.015442,0.052532,0.009873,0.059524,-0.034001,0.041294,0.019747,-0.063871,-0.091744,0.072558,-0.059041,0.067811,0.078066,-0.036601,-0.12386,0.005151,-0.070165,0.012797,-0.06776,0.077392,-0.14684,-0.046691,-0.0071814,-0.022879,0.078427,-0.048816,-0.13263,0.061739,0.00316,0.040626,-0.0874,-0.10159,-0.060164,-0.0051993,0.010261,-0.10049,-0.027823,-0.05814,0.085696,-0.041313,0.10645,-0.10296,-0.067879,-0.10447,0.073898,-0.092595,0.030263,-0.052431,0.1135,-0.0018418,-0.14141,0.0055883,0.00068374,-0.1317,0.019034,0.098398,0.23024,-0.0077594,-0.12525,-0.045177,-0.35602,0.15918,-0.10341,0.037901,-0.29227,-0.066081,-0.38513,0.083518,-0.2484,0.22573,-0.35868,0.047658,-0.045092,0.079658,-0.13137,-0.22702,-0.2521,0.1606,-0.12104,-0.23088,-0.004471,-0.37813,-0.2488,-0.32628,-0.050598,-0.090874,-0.03492,0.017502,-0.1177,-0.28908,0.03367,-0.076073,-0.088001,0.33347,0.13504,-0.24579,0.018355,0.08002,0.054692,-0.25807,0.13836,0.17468,-0.43157,-0.30881,-0.2038,0.18762,-0.079012,0.040145,-0.43617,-0.14609,-0.12015,-0.33012,0.21514,-0.12418,-0.091725,0.2264,0.0094593,-0.13648,0.0015112,-0.19141,-0.37628,-0.18185,0.035729,0.022854,-0.037226,-0.10864,0.025835,0.036,0.21607,0.16574,0.17076,0.10811,-0.10023,-0.07292,0.08284,0.074357,0.10547,-0.05823,0.15712,0.049148,-0.21362,0.079553,0.091144,0.065424,-0.23604,-0.15622,-0.041466,0.15533,0.1384,0.42306,-0.046733,0.066173,0.051521,-0.15451,0.052059,-0.19796,0.045159,0.14807,0.089029,-0.028858,0.041202,-0.10136,0.078194,0.058449,0.0097479,-0.11053,-0.018726,0.12721,-0.019035,0.10054,0.020439,0.093863,-0.33711,-0.13938,-0.042144,-0.1329,-0.10014,-0.11487,0.0017902,0.026697,-0.041485,-0.19746,-0.084417,-0.27317,0.44422,0.099205,-0.11544,-0.36772,-0.023911,-0.11865,-0.32734,-0.074916,-0.18943,-0.24336,-0.1939,-0.24375,-0.23809,0.064505,-0.14194,-0.07794,-0.1339,0.22946,-0.021026,0.048541,-0.023387,-0.044259,0.14685,-0.19987,0.11586,0.002792,0.19651,0.054354,0.0072091,-0.2543,0.082078,0.030531,-0.2497,0.098714,0.025869,0.19891,-0.13411,0.018924,-0.068424,-0.15944,-0.093719,0.16078,-0.16157,0.052414,0.18439,0.1651,-0.1718,0.17061,-0.028512,0.061237,0.0066375,-0.048641,0.14182,0.027891,0.1058,-0.076461,0.2007,-0.21297,0.065227,0.1017,0.10524,0.14046,0.069434,0.014013,0.23289,0.040962,0.083237,0.13589,0.026982,-0.26074,-0.25231,-0.054488,-0.11325,-0.041903,0.040143,-0.13564,0.067164,-0.097302,-0.12043,-0.29797,-0.13594,0.030482,0.037878,0.071951,0.12719,0.12484,0.10217,-0.042776,-0.19086,0.053502,0.18919,0.0027065,-0.256,-0.21247,-0.035943,-0.008108,-0.21658,0.20821,-0.018897,-0.069139,-0.12218,-0.13263,0.015033,-0.097505,-0.077789,-0.0018996,0.089673,-0.0053886,-0.07958,0.072478,-0.05365,0.0076113,-0.077163,0.12365,0.026408,0.17604,0.1987,0.086975,0.11177,0.068044,0.012059,-0.0413,0.015829,0.012008,0.11834,0.28724,-0.06722,0.3533,0.089167,0.10674,0.063645,-0.13819,0.011756,0.027557,-0.11634,-0.0020286,-0.17147,-0.22124,-0.1778,-0.21211,-0.060831,0.073719,-0.085593,0.065748,-0.077734,0.11126,0.088298,0.033011,0.14175,0.18694,-0.00030681,-0.065606,0.15551,-0.015237,-0.043744,0.0046164,-0.056761,-0.18497,0.038548,-0.11089,0.033293,0.12405,0.030584,0.15463,-0.033387,0.00090477,-0.028917,0.099923,-0.068302,0.15587,-0.018063,0.11688,0.15087,-0.034489,-0.19105,-0.099841,0.052991,0.088511,-0.014521,-0.09749,0.18246,0.097137,0.066946,0.056706,0.0023012,0.080509,-0.14456,-0.091911,0.04996,0.22188,0.044026,0.19172,-0.15987,-0.21394,-0.073498,-0.2834,0.019077,0.030532,-0.10236,-0.16019,0.020079,-0.29416,-0.16902,-0.121,-0.22802,0.15672,-0.04126,0.013158,-0.23928,0.1793,0.027844,-0.10894,0.010212,0.012306,0.17821,-0.094991,0.2592,0.064225,-0.19455,-0.033788,0.31852,-0.24781,-0.0080616,-0.02692,-0.061403,0.097647,0.042473,0.24975,-0.27998,0.27491,-0.14179,-0.17851,-0.27035,0.12155,-0.27329,-0.1873,0.19037,0.038522,-0.23131,0.09799,-0.1299,0.066361,-0.047323,-0.37626,-0.039302,-0.071386,-0.26969,-0.16048,0.093246,0.058979,0.15704,-0.019701,-0.026031,0.082862,0.086977,0.036479,0.14181,0.24862,-0.16284,-0.24025,-0.053505,-0.039894,-0.1077,0.14773,-0.14456,-0.067047,-0.36782,-0.15735,-0.072783,0.042102,0.090557,-0.050577,-0.26415,0.1812,-0.071189,-0.0095509,-0.27618,0.1943,0.092496,-0.111,-0.23852,0.1872,-0.1534,0.15175,-0.15547,-0.1665,0.040287,0.13923,-0.14709,-0.073169,-0.047064,0.13378,-0.1294,-0.34661,-0.036266,-0.1521,-0.041911,-0.13291,-0.20547,0.34093,0.063033,0.21116,0.067954,-0.0012716,0.063974,-0.16569,-0.10146,0.14664,0.10461,0.10733,0.11607,-0.13976,0.056741,-0.3212,0.16311,-0.018764,-0.068343,0.30795,0.013462,-0.00075601,0.68433,-0.22363,0.014491,-0.29477,0.19527,-0.1489,-0.21623,-0.14474,-0.19959,-0.10844,0.0092576,-0.16668,-0.17303,0.080419,-0.21502,-0.12828,-0.17849,0.20146,-0.045231,0.022077,0.27491,0.21943,0.24174,-0.03894,0.056624,0.034794,0.095916,-0.077754,0.15225,-0.39334,-0.042076,-0.023901,-0.22711,0.305,0.1867,0.20036,-0.1411,0.076737,0.014342,-0.066742,-0.13418,-0.037891,-0.15642,-0.035705,-0.0041827,0.11024,-0.18157,-0.030368,-0.10149,0.012608,-0.039944,-0.29182,-0.17094,0.024667,-0.15001,-0.093933,0.17677,0.05717,-0.12631,0.13365,0.17557,-0.032564,0.042568,0.31131,0.27014,0.15737,0.019276,-0.3274,0.12955,-0.090326,-0.21212,-0.13372,-0.099865,-0.18897,-0.024883,-0.057407,-0.2091,0.031941,-0.17326,-0.022924,-0.19242,0.14874,0.065532,-0.00938,0.11943,0.08292,0.17322,-0.19112,0.058439,0.13976,0.0053879,-0.0084409,0.029777,-0.15744,0.086307,-0.046243,-0.12349,0.12399,0.052707,0.016044,-0.022062,-0.016577,0.068432,0.0085973,-0.075897,0.046489,-0.0017412,-0.075861,0.081119,0.037237,-0.25847,0.18954,-0.12668,-0.095458,-0.089548,-0.07787,0.21183,0.028916,-0.017251,-0.033635,0.19057,-0.15764,0.067601,0.096099,-0.020435,0.2959,-0.029904,0.26136,0.2493,-0.061274,-0.010675,-0.091198,-0.026472,0.077812,-0.22012,-0.1632,-0.060472,0.0050323,-0.0065152,-0.16957,-0.17632,-0.11513,-0.11542,-0.013492,-0.033041,0.082124,0.09227,0.043792,0.088854,0.0098544,0.047642,-0.10084,0.073645,0.10164,0.16744,-0.046165,0.021104,-0.20576,0.044028,0.0037755,-0.11363,0.055315,0.099668,-0.027106,0.0030678,-0.13091,0.094369,-0.012795,-0.10235,0.084001,-0.06185,0.070338,0.085224,0.028946,-0.082723,-0.0057803,-0.086083,0.04702,0.065633,0.058813,0.24857,-0.04602,0.00035244,0.054215,0.15337,-0.159,-0.10446,-0.019316,-0.021088,0.019786,0.082745,0.13542,-0.22975,-0.3638,0.029235,-0.012264,-0.2115,-0.069387,0.0056549,0.2514,0.11682,-0.080336,0.069826,-0.16079,0.12937,0.2035,0.20936,-0.26871,0.16829,-0.072489,0.045495,-0.017466,-0.055324,0.14408,-0.17856,0.17925,0.227,-0.0041372,-0.29265,-0.020279,0.092987,0.36656,0.025432,0.13074,0.11838,0.064308,-0.13918,-0.082288,0.045711,0.074662,0.21907,0.028363,-0.14653,-0.27381,-0.12325,-0.13492,-0.17383,0.26844,0.017495,0.16311,-0.085042,-0.10049,-0.1776,0.019794,-0.14467,0.22658,-0.18773,0.072767,0.0080465,0.34619,-0.13508,-0.23964,-0.010672,-0.067599,-0.06703,-0.21826,-0.33127,-0.21707,-0.0074721,0.24911,0.031158,0.031322,0.13713,0.24334,0.19129,0.17673,0.068164,0.11773,0.040321,0.13744,0.16278,0.052998,0.15901,-0.15807,0.11427,0.057857,-0.078923,-0.10604,-0.097614,0.099799,-0.024871,0.011205,-0.070074,0.051124,0.17993,0.2079,0.065972,0.12313,0.16171,-0.057778,-0.17007,-0.014634,0.1435,0.0035859,-0.084946,-0.058478,-0.0075733,-0.0010283,0.054307,-0.10743,-0.21684,0.064777,0.15875,-0.030862,0.11627,0.10865,-0.03695,-0.019206,-0.15132,-0.040326,-0.13959,-0.18133,-0.11116,0.093486,-0.0048024,-0.18126,0.0020492,-0.14368,0.09092,-0.080239,-0.27567,-0.067762,0.16657,0.0045749,-0.034304,-0.04725,0.10401,0.24489,0.25557,0.045692,0.056875,0.1656,-0.060574,-0.13799,-0.00041017,0.13169,-0.053798,-0.047254,0.14514,-0.050762,-0.13031,-0.079607,0.016137,-0.070325,-0.020065,-0.048119,0.011113,3.3875e-05,0.1401,0.23478,0.051999,0.14247,0.00016119,-0.093807,-0.15451,-0.31605,-0.053752,0.17275,0.032174,0.014522,0.15544,-0.052728,-0.089894,-0.26315,-0.10158,0.081522,0.13622,0.049376,0.034827,0.17925,0.054389,-0.24933,-0.22114,0.081538,-0.22271,-0.15122,-0.063144,0.03707,0.11942,0.014943,-0.10627,0.097905,0.02436,-0.11784,0.29058,0.040475,0.029225,-0.15807,-0.040956,-0.17667,-0.047998,-0.1783,-0.21409,-0.20934,-0.051417,-0.26685,-0.099234,0.087484,-0.17913,-0.06085,-0.18995,0.14031,-0.095859,-0.12226,0.074448,0.058574,0.075954,-0.20015,0.084967,0.20359,0.18165,0.095334,0.054206,-0.2398,-0.0015155,0.11456,-0.1242,0.1166,0.18041,0.010567,0.029212,0.048452,-0.05525,-0.10039,0.0092132,0.15092,-0.013177,-0.020125,0.13565,0.07657,-0.14304,0.17724,0.036722,0.00015941,0.078631,-0.12117,0.034702,0.053634,0.0942,0.047429,0.085972,-0.04049,-0.10556,0.047808,0.066104,0.06267,-0.0078098,0.11407,-0.032453,-0.11425,0.10287,-0.18641,0.14804,0.062009,-0.21094,-0.15645,-0.058305,-0.23219,-0.10584,-0.074466,-0.048404,-0.020153,0.074694,-0.10372,-0.29342,0.090457,-0.0044635,-0.10102,0.21624,0.082918,0.18664,-0.21495,-0.017574,0.077309,0.050517,0.0094834,0.045221,-0.17958,0.077657,0.12508,-0.072553,0.2187,0.045882,-0.11457,-0.16071,-0.28838,-0.089809,0.058391,-0.058079,-0.020883,-0.04425,-0.054129,0.046165,0.13038,-0.10971,0.18022,-0.15547,-0.043102,-0.095374,0.057549,0.23976,0.10728,0.10999,0.085339,-0.1066,-0.27712,0.04239,-0.18265,0.093953,0.2207,0.029236,-0.0076846,-0.14317,-0.10106,-0.0033799,0.17715,0.030968,-0.051105,0.15163,0.023844,0.24379,0.22408,0.15591,0.13102,-0.15232,-0.049273,0.0022318,-0.0094581,-0.0088762,-0.025084,0.088274,0.11214,-0.15508,0.050037,0.004493,0.062977,0.016162,0.00045432,-0.15988,0.14699,0.0441,0.30357,-0.20519,0.084826,-0.011936,-0.22309,-0.067859,-0.093131,0.025122,-0.011907,0.065638,0.049395,-0.027406,0.035946,0.057657,-0.058185,0.017296,-0.054213,0.1211,-0.094208,-0.020986,0.11836,-0.093853,0.058763,-0.05567,-0.133,-0.098342,-0.020577,-0.079226,-0.012443,0.031854,0.061239,-0.10069,-0.1573,0.083624,-0.14276,0.15707,-0.10903,0.021774,0.069756,0.2683,0.061162,-0.056563,-0.14971,0.067781,-0.026342,0.10816,0.020058,0.33989,0.19418,-0.032368,0.20002,0.27049,0.32724,0.014421,0.028753,-0.047886,0.019253,-0.34966,0.071951,-0.10395,-0.047075,0.10677,-0.096369,0.161,-0.10835,0.040662,0.020428,-0.26324,-0.064322,-0.14484,-0.18505,-0.10739,0.19459,-0.073315,0.025377,-0.157,-0.20751,-0.17095,-0.054174,-0.072674,-0.15654,0.084474,-0.078731,0.10765,0.14719,-0.16771,0.1076,-0.018699,-0.32317,-0.17777,-0.1146,-0.45908,0.10409,0.34906,-0.041828,-0.1562,0.044929,-0.064285,-0.25771,0.26886,0.18294,0.084234,-0.0076326,-0.061071,0.018693,-0.1891,-0.10285,-0.070656,-0.074609,-0.1946,-0.12209,-0.14756,0.038505,-0.09455,-0.13937,-0.12171,0.14695,-0.0052179,0.08078,0.16158,0.11197,0.023046,-0.097594,0.077482,0.17316,0.14991,-0.10536,-0.15833,-0.31716,-0.012938,-0.031777,0.037846,0.11939,0.11041,0.12544,-0.16818,-0.13434,0.051609,0.010252,-0.10689,0.063245,-0.14446,0.05284,0.087231,0.047102,-0.11759,0.053653,-0.072619,0.086179,-0.080679,-0.061465,0.064701,-0.10055,0.12618,0.063162,-0.0044322,0.010852,-0.12886,0.020476,0.14824,0.13679,0.06464,0.16755,-0.28644,-0.15347,0.16068,-0.051529,-0.0054021,-0.034999,0.14264,0.11702,-0.054442,0.23694,0.11057,0.031406,-0.0026016,-0.084127,0.12707,0.096762,0.19488,-0.15959,0.026069,0.0082113,-0.082007,-0.18508,0.022203,0.19201,-0.17062,-0.068387,-0.057907,0.082323,0.10739,0.23753,-0.17984,0.23897,0.0016382,-0.21817,0.010169,-0.062856,0.08048,0.37005,0.13762,-0.066761,0.01617,-0.12794,0.1,0.056262,-0.22447,-0.053248,0.076337,0.14512,-0.068982,0.1274,-0.084314,0.026033,-0.29211,0.077299,0.076861,-0.27855,-0.15608,-0.058748,0.086643,-0.11101,-0.041315,-0.18737,0.049287,-0.1849,0.26507,-0.146,0.18733,0.16758,-0.032881,0.01691,-0.060414,-0.23198,0.053866,-0.031378,0.26807,0.13236,0.24336,-0.1954,-0.038827,0.063502,-0.19477,-0.050737,-0.19477,0.1493,0.42555,-0.02347,-0.18211,-0.21415,-0.27718,0.15437,0.2537,-0.40648,-0.18528,-0.15798,0.1546,-0.082955,0.088466,0.19138,-0.050263,-0.098871,0.045092,-0.1202,0.165,0.1213,-0.063554,-0.080877,0.2535,0.070425,-0.24222,-0.024191,-0.12613,-0.20752,-0.11731,0.061384,0.11536,-0.17899,0.18718,0.049753,0.038661,-0.0149,0.055261,0.032642,-0.12682,0.13527,-0.12323,0.0018529,-0.056079,0.2446,0.30293,0.15417,-0.07532,-0.17948,-0.052289,-0.11846,-0.19657,-0.22906,-0.08883,-0.26307,-0.17042,-0.02133,-0.15143,0.028316,-0.034842,0.053986,-0.020667,0.049781,0.059371,-0.071464,0.089593,0.044626,0.056911,-0.056824,0.11739,0.096625,0.082077,-0.045013,-0.0033422,-0.19889,-0.12739,-0.062612,-0.13991,0.011584,0.089418,0.067354,-0.048291,-0.14125,0.072637,0.057647,-0.042238,0.067429,-0.1715,0.12595,0.082209,0.071406,-0.043601,-0.038815,-0.05651,0.086359,0.10545,-0.10629,0.25815,0.13564,0.031682,-0.02454,0.08337,-0.028671,0.023057,-0.12385,0.094979,0.12927,0.0073744,0.2131,0.37841,-0.24476,-0.07283,-0.12464,0.03197,-0.069916,-0.28061,-0.14256,-0.21158,-0.30604,0.10128,-0.2706,-0.041259,0.12068,-0.065861,0.035863,-0.19334,0.17771,0.078318,-0.10836,0.31833,0.0591,0.20588,-0.040338,0.22718,-0.099275,0.27342,-0.1131,0.13197,-0.28939,0.073773,0.080255,-0.2596,0.11061,0.19859,0.12829,-0.13761,0.093809,0.12413,-0.03822,-0.13638,0.050351,0.092299,0.0049128,0.16366,0.089926,-0.40364,0.11222,-0.18966,0.026915,-0.15296,-0.29281,-0.39685,0.12504,-0.021858,0.086862,0.16941,0.020985,-0.22182,-0.021002,0.14186,0.025519,-0.0027082,0.28328,-0.010795,0.22029,-0.22831,-0.21365,-0.13242,-0.11559,-0.092004,0.12224,-0.13425,-0.074178,-0.20519,-0.049295,-0.17854,0.11056,-0.062485,-0.020957,-0.074249,0.24555,0.13835,-0.2226,-0.035982,-0.022368,0.1295,0.11781,-0.35098,-0.09825,0.20989,-0.028687,-0.26621,-0.25158,0.084123,-0.026044,-0.049949,0.046101,0.15554,0.26733,-0.17622,0.1606,-0.17481,-0.25148,-0.15777,-0.052939,-0.27202,0.2004,-0.13323,0.22567,0.0095906,0.14752,-0.21525,0.026034,-0.14419,0.3165,-0.27258,-0.13167,-0.029478,-0.22291,0.11849,-0.21025,0.0091133,0.18078,0.050125,-0.082824,-0.09092,-0.003462,0.31404,0.17607,-0.0076101,-0.023035,0.080673,-0.11372,-0.2121,-0.079292,-0.21495,-0.15051,0.030469,-0.028338,0.08359,-0.030705,-0.15362,0.0024961,-0.071786,0.11396,-0.050391,0.0079984,0.054401,0.1617,0.1521,-0.047844,0.16671,0.14588,0.044542,-0.13056,-0.0298,-0.16532,0.0097404,-0.046108,0.0067666,0.1931,0.14455,0.085617,-0.044757,-0.098881,0.0039722,-0.095549,0.008118,0.13844,0.02223,0.078992,0.014361,-0.088665,-0.10492,-0.042677,-0.12628,-0.043383,0.0028819,0.048901,0.05317,0.1311,-0.065466,0.027607,0.020032,-0.03288,0.021721,-0.018203,0.097581,0.1231,-0.051719,0.10215,0.4793,-0.3261,-0.17898,0.027659,-0.045519,-0.081618,-0.22741,-0.024622,0.017179,-0.19962,-0.024573,-0.13271,-0.042886,-0.11796,0.077459,-0.13195,0.080749,0.053407,0.082412,0.07791,-0.28004,0.033033,0.066882,-0.064961,-0.049515,-0.14759,0.0098581,-0.28411,0.011936,-0.58809,0.060461,0.11802,-0.14369,-0.19659,0.016307,0.021201,-0.085497,0.099957,-0.042439,-0.08563,0.09942,-0.058665,0.021131,0.10713,-0.049087,0.12022,-0.085047,0.068531,0.069346,-0.11486,0.062841,0.011471,0.073412,0.17213,0.14849,-0.16394,0.090662,-0.13652,-0.30813,0.08344,-0.057535,-0.12233,-0.061974,0.098751,-0.017254,-0.0052215,-0.15988,-0.03217,-0.22217,0.05434,0.42861,0.17279,0.0761,0.096137,-0.17707,0.044157,-0.097823,-0.45443,-0.050093,-0.04011,0.11737,0.075938,0.073319,0.056828,0.034081,0.088686,0.15181,-0.25561,0.13313,0.0067121,0.20489,0.069841,-0.091577,0.09639,0.056916,0.20636,-0.08589,0.17526,-0.13002,-0.42506,-0.072354,0.1867,-0.087314,0.017203,0.25722,0.082592,0.17721,-0.38162,0.1651,-0.18032,0.23744,-0.22976,-0.18786,0.0069309,0.10111,-0.057366,-0.11877,0.048563,-0.11122,0.025761,-0.093164,0.1729,0.17407,0.14835,-0.19431,-0.11754,0.056982,-0.06869,0.5994,0.32014,0.058346,-0.13372,-0.064507,-0.12176,-0.25181,-0.0071986,-0.014752,0.039573,-0.56872,-0.05152,0.074496,-0.16172,-0.0027804,0.060821,-0.11931,0.20182,0.16055,-0.08361,-0.18637,0.16934,0.13315,-0.47794,-0.01342,0.11958,-0.2445,0.12142,-0.20402,-0.048919,-0.086107,0.034562,-0.041398,-0.10131,-0.022029,0.12841,-0.25464,-0.33802,0.083307,0.024377,-0.17454,-0.15035,-0.12329,0.39552,-0.014605,0.13099,0.22892,-0.078752,0.0047093,-0.10612,0.033305,0.16906,0.25695,0.14567,0.011947,-0.1092,-0.030848,-0.12645,0.12209,-0.21127,0.0060602,0.16902,0.1295,0.1302,-0.09755,-0.10272,-0.11036,0.062018,0.079092,0.032974,0.041147,0.069403,0.084744,0.05731,0.056211,0.027017,0.049067,-0.096155,-0.088157,0.021231,0.0143,-0.11156,-0.094546,-0.10423,0.088135,0.068637,-0.078819,0.0079861,-0.035896,0.095044,-0.12408,-0.10847,-0.11078,0.066973,-0.072197,0.072334,0.041373,-0.057485,-0.045936,-0.062235,0.04336,-0.052621,0.028397,-0.0046281,-0.11373,-0.089121,-0.093066,0.054406,0.020679,-0.017569,-0.084623,-0.13527,-0.04538,-0.10906,-0.13439,-0.1356,-0.086862,-0.13069,0.036634,0.033624,0.042144,-0.12444,0.070298,0.010448,0.046381,-0.030722,0.060027,-0.11855,0.30306,0.19122,0.045109,-0.23179,-0.01847,-0.037292,-0.060779,-0.1408,-0.13139,-0.14043,-0.11318,-0.088567,-0.084093,0.028646,-0.0080049,0.053977,-0.090612,0.19633,0.10197,-0.14117,0.052703,-0.009337,0.074514,-0.10322,0.015674,0.14047,-0.0044151,-0.080993,-0.16708,-0.26751,0.13713,-0.14396,-0.11496,0.12253,-0.0014717,-0.021382,0.043114,-0.064063,0.0018533,-0.069056,-0.10659,0.058498,-0.0059374,-0.019638,0.16411,-0.046291,-0.066064,-0.022656,-0.12626,0.11197,-0.10473,0.029213,0.27137,0.1292,-0.11396,0.077005,0.20034,-0.19784,0.032393,-0.015433,0.080417,-0.11376,0.046282,0.16362,0.31327,0.0048402,-0.019246,-0.10228,-0.082939,-0.03389,-0.098517,-0.20289,-0.062478,-0.22876,-0.070329,-0.075423,-0.086893,-0.0090633,-0.11141,-0.13781,-0.081637,0.19689,-0.0011367,0.087021,0.17538,0.050483,0.17472,-0.15356,-0.0040672,0.10232,0.16686,-0.11948,0.039737,-0.25708,0.034213,-0.035467,-0.078523,0.059008,0.10358,0.049519,0.056583,-0.01601,-0.049644,-0.065392,-0.089893,0.13352,-0.051116,0.011466,0.095944,-0.035346,-0.16277,0.13481,-0.068309,-0.012023,0.11503,0.011405,0.27306,-0.05937,0.11667,0.078691,0.017177,-0.077457,-0.19715,0.1345,0.081872,0.024867,0.10466,0.21659,0.46448,-0.10434,0.11007,0.12532,0.14095,0.055195,-0.18307,-0.13919,-0.17308,-0.25092,0.12208,-0.04387,-0.013758,-0.094155,-0.18287,-0.0085516,-0.11001,-0.010924,-0.071758,-0.07541,0.26559,0.058004,0.18985,-0.15012,0.25198,-0.0101,0.21205,-0.26588,0.087598,-0.25382,-0.074091,-0.20235,0.049154,0.36578,0.074075,0.062101,0.046626,0.098521,0.048309,0.076691,-0.20561,0.021718,-0.0062815,0.052778,0.058575,-0.015886,-0.081888,-0.089382,-0.27165,0.091195,0.044727,-0.36885,0.012852,0.21155,-0.0013676,-0.018593,0.15429,0.20674,-0.082198,-0.054021,0.037327,0.15459,0.07259,0.19585,-0.27936,-0.26074,0.12837,0.30128,-0.014142,-0.14635,0.12914,-0.011933,0.14388,0.16157,0.036403,0.03359,0.064693,0.060617,0.15513,-0.017727,0.2522,0.015666,0.14585,0.071195,-0.28949,0.087695,0.070421,0.11398,-0.061892,-0.094532,-0.08717,-0.030265,0.1256,0.28646,-0.052763,-0.013683,0.10314,-0.11217,0.063208,-0.026517,0.050048,0.24931,-0.01828,0.082739,0.051347,-0.089549,0.07331,0.022432,-0.2339,-0.075851,0.045711,0.11756,-0.0024796,-0.061193,-0.091247,0.083222,-0.13089,0.071886,-0.076482,-0.25581,-0.055472,0.026805,-0.02055,0.057257,-0.13306,-0.13498,0.088545,-0.28323,-0.14668,-0.22041,0.063857,0.25679,0.045403,0.091519,-0.078486,0.22917,0.28712,0.010804,0.12781,-0.028792,0.16911,0.17386,-0.076389,0.10653,0.081304,0.14244,0.13145,0.017088,-0.14042,0.036598,0.081772,0.039173,-0.068816,-0.17457,-0.046777,-0.025021,0.036374,0.34516,0.057282,0.060132,-0.060625,-0.036122,-0.14029,-0.24625,-0.05943,0.20417,0.1018,-0.047175,-0.081747,-0.11221,-0.035694,-0.33274,-0.072297,0.016589,0.11834,-0.15757,0.10546,-0.070422,-0.056173,0.07464,-0.2108,0.093229,-0.028852,-0.1366,0.027521,0.011163,0.089694,-0.023031,0.029473,-0.097463,-0.069741,-0.14024,-0.41471,-0.28948,-0.038513,0.10094,-0.011967,-0.085599,0.10943,-0.015432,0.20812,-0.013825,0.067318,0.02418,0.016675,-0.02134,0.22014,0.11199,-0.060876,-0.17984,0.0058802,0.0015387,-0.28964,0.096279,0.099209,0.027213,-0.088163,0.04658,-0.11582,0.0044402,0.25155,0.31394,0.023623,0.2067,0.0518,-0.050088,-0.081479,-0.14134,0.090722,0.098857,0.098336,0.0079151,-0.067176,-0.037577,0.049024,-0.064333,-0.061529,0.18751,0.17736,0.1461,-0.1799,-0.062346,-0.079904,-0.16958,-0.14879,0.033105,-0.10344,-0.1255,-0.077463,0.14065,0.094142,-0.10815,-0.24058,-0.11938,-0.014704,-0.045809],"b2":[-0.20119,0.015189,-0.055349,-0.039363,0.01109,0.14107,0.12632,0.085684,-0.16649,0.029347,0.047908,0.083169,-0.060599,-0.021648,-0.012132,0.01713,-0.096225,-0.083308,-0.15104,0.055033,-0.089437,-0.1958,-0.0088218,-0.10711,0.14529,0.12591,-0.027163,-0.052683,-0.085192,-0.014168,-0.024298,-0.12154,-0.019832,-0.070872,-0.037259,-0.030698,-0.15107,-0.21266,-0.038984,0.099487,-0.12534,0.065763,0.02389,-0.080931,-0.062615,0.077779,-0.023349,0.1046,-0.045926,-0.093644,0.080465,-0.08695,-0.021253,0.06965,-0.033906,-0.10721,-0.18256,0.044723,0.0087584,0.10293,-0.16786,-0.070059,0.080474,0.002953],"W3":[0.44907,0.15919,-0.15193,-0.3131,-0.29292,0.17242,-0.13258,0.11923,0.39498,0.21596,0.25131,0.43194,0.32,0.27457,-0.36262,-0.43405,-0.22205,-0.2903,0.088421,-0.31439,0.47322,0.50626,0.12094,-0.47722,-0.1064,-0.21377,-0.14241,0.20076,-0.24147,4.8973e-05,0.60011,-0.32897,0.20284,0.27083,0.13028,0.50433,0.45596,0.53039,0.18712,0.051604,-0.54229,-0.12867,-0.2941,0.2534,0.24531,-0.10717,-0.55167,0.10307,-0.44156,0.36983,0.089656,0.41044,0.43905,0.11662,0.31258,-0.62236,0.49152,-0.087106,0.13511,0.22188,0.23268,-0.2188,-0.18706,-0.24961],"b3":[-0.028318]}},{"id":"gen01","gen":1,"label":"Generation 1","stats":{"gamesWatched":9520,"loss":0.42900996201916747,"vsRandom":{"asX":{"w":245,"d":5,"l":0},"asO":{"w":222,"d":28,"l":0},"gamesPerSide":250},"losingBlunders":29,"missedWins":10,"positionsChecked":4520,"skills":{"takesWin":1.0,"blocksThreat":0.9953,"winPositions":1638,"blockPositions":860}},"weights":{"W1":[-0.29078,0.36242,-0.17209,-0.12622,0.23885,-0.11139,-0.19767,0.36065,-0.18454,0.045616,-0.32391,-0.031334,0.020383,-0.37935,0.041242,-0.035178,-0.2748,0.06746,-0.31896,-0.019707,0.20315,0.2532,-0.07498,0.28494,-0.11567,-0.026128,0.36755,